vendrían_siendo -0.0254166033119 -0.0262104794383 -0.0948445387185 -0.150830540806 0.289483435452 -0.0615774486214 -0.237801678479 0.174053445458 -0.138526175171 0.255675151944 0.0965707721189 -0.285938605666 -0.138421430252 -0.100296102464 -0.148987771943 -0.0714591182768 -0.0938574187458 0.0680594239384 0.173557326198 0.0848839264363 0.296142555773 -0.157197580527 0.172591201961 -0.150105714798 0.0381877720356 -0.265666138381 0.25505451858 0.0183592997491 0.0296617858112 -0.220500599593 0.184949509799 0.0652012750506 -0.0376793891191 -0.214184701443 0.185508362949 0.172475205734 -0.12901649042 -0.0884947776794 0.177293166518 -0.102052491158 0.0611948091537 0.084232006222 0.0301468558609 -0.0183192081749 0.0705973412842 0.115713991225 0.0697916783392 -0.0147817954421 0.244616666809 -0.0309844836593 -0.175100855529 0.167887557298 -0.0915682092309 -0.149787396193 0.111730989069 -0.0158384944079 0.118423554115 0.187901988626 0.163500990719 0.0493459692225 -0.0357948057353 0.0731187164783 0.184348352253 -0.151577360928 -0.0718382317573 0.0889572845772 -0.0894750505686 -0.105476808734 0.135597556829 0.0454112440348 -0.021057292819 -0.156918086112 0.196147598326 0.17643301934 -0.0529569331557 0.138249054551 0.0326529312879 0.0241671353579 0.374043256044 0.0888709723949 0.206410467625 -0.0637587308884 0.0194349475205 -0.271045029163 0.285576052964 -0.163568753749 0.163504444063 0.163484539837 0.0256899744272 -0.224468494765 0.210112506524 0.306115806103 0.197934135795 0.0540976673365 -0.00926768034697 -0.323271518573 0.0598845500499 -0.228983409703 0.359591171145 0.12846354302 0.233580894768 -0.267949640751 0.0753595596179 -0.102705787867 0.101066484116 -0.23422537744 0.0770980343223 -0.304555416107 -0.0334420981817 -0.123543614522 0.110977128148 0.303477585316 0.109749510884 0.166700843722 -0.140454240143 -0.0573810432106 0.210401836783 0.478040158749 0.18680466339 0.272439345717 0.184551633894 -0.161446731538 0.242060415447 -0.0158626884222 0.0611427573022 -0.119867082685 -0.222230769694 0.164097746834 -0.201048566028 0.253063591197 -0.126378346235 0.366815045476 -0.113994769752 0.168536260724 0.149774894118 0.0897742286325 0.0308899357915 -0.109698496759 0.117196827196 0.218212816864 -0.128750025295 0.210152454674 -0.205332532525 0.292369429022 -0.220208570361 -0.186944119632 -0.0494344606996 -0.316752295941 -0.120746903587 0.191711552441 -0.049491815269 0.0229572355747 0.0636997716501 0.14940674603 -0.0986127480865 0.0628917515278 0.151162825525 0.43628628552 -0.0586200319231 0.0577714596875 -0.0091295838356 -0.0630712369457 0.179278038442 -0.0432627052069 -0.237444639206 -0.00783275812864 -0.0608181068674 -0.025478689 -0.181199200451 -0.0355602605268 -0.150818264112 0.286954119802 -0.176782809198 0.260368447751 -0.179681293666 -0.0528766931966 0.0632795672864 -0.0135432872921 0.233285501599 0.331824161112 -0.133874837309 0.086399000138 -0.242109183222 0.0577154811472 -0.0834767445922 0.181767292321 -0.234544023871 -0.179748266935 -0.0766845773906 -0.0316320508718 0.139140518848 -0.211882576346 0.324451770633 0.188489355147 -0.188066132367 -0.166974943131 -0.237595915794 0.114733025432 -0.0843511262938 0.356773436069
vendrían_siendo -0.0254166033119 -0.0262104794383 -0.0948445387185 -0.150830540806 0.289483435452 -0.0615774486214 -0.237801678479 0.174053445458 -0.138526175171 0.255675151944 0.0965707721189 -0.285938605666 -0.138421430252 -0.100296102464 -0.148987771943 -0.0714591182768 -0.0938574187458 0.0680594239384 0.173557326198 0.0848839264363 0.296142555773 -0.157197580527 0.172591201961 -0.150105714798 0.0381877720356 -0.265666138381 0.25505451858 0.0183592997491 0.0296617858112 -0.220500599593 0.184949509799 0.0652012750506 -0.0376793891191 -0.214184701443 0.185508362949 0.172475205734 -0.12901649042 -0.0884947776794 0.177293166518 -0.102052491158 0.0611948091537 0.084232006222 0.0301468558609 -0.0183192081749 0.0705973412842 0.115713991225 0.0697916783392 -0.0147817954421 0.244616666809 -0.0309844836593 -0.175100855529 0.167887557298 -0.0915682092309 -0.149787396193 0.111730989069 -0.0158384944079 0.118423554115 0.187901988626 0.163500990719 0.0493459692225 -0.0357948057353 0.0731187164783 0.184348352253 -0.151577360928 -0.0718382317573 0.0889572845772 -0.0894750505686 -0.105476808734 0.135597556829 0.0454112440348 -0.021057292819 -0.156918086112 0.196147598326 0.17643301934 -0.0529569331557 0.138249054551 0.0326529312879 0.0241671353579 0.374043256044 0.0888709723949 0.206410467625 -0.0637587308884 0.0194349475205 -0.271045029163 0.285576052964 -0.163568753749 0.163504444063 0.163484539837 0.0256899744272 -0.224468494765 0.210112506524 0.306115806103 0.197934135795 0.0540976673365 -0.00926768034697 -0.323271518573 0.0598845500499 -0.228983409703 0.359591171145 0.12846354302 0.233580894768 -0.267949640751 0.0753595596179 -0.102705787867 0.101066484116 -0.23422537744 0.0770980343223 -0.304555416107 -0.0334420981817 -0.123543614522 0.110977128148 0.303477585316 0.109749510884 0.166700843722 -0.140454240143 -0.0573810432106 0.210401836783 0.478040158749 0.18680466339 0.272439345717 0.184551633894 -0.161446731538 0.242060415447 -0.0158626884222 0.0611427573022 -0.119867082685 -0.222230769694 0.164097746834 -0.201048566028 0.253063591197 -0.126378346235 0.366815045476 -0.113994769752 0.168536260724 0.149774894118 0.0897742286325 0.0308899357915 -0.109698496759 0.117196827196 0.218212816864 -0.128750025295 0.210152454674 -0.205332532525 0.292369429022 -0.220208570361 -0.186944119632 -0.0494344606996 -0.316752295941 -0.120746903587 0.191711552441 -0.049491815269 0.0229572355747 0.0636997716501 0.14940674603 -0.0986127480865 0.0628917515278 0.151162825525 0.43628628552 -0.0586200319231 0.0577714596875 -0.0091295838356 -0.0630712369457 0.179278038442 -0.0432627052069 -0.237444639206 -0.00783275812864 -0.0608181068674 -0.025478689 -0.181199200451 -0.0355602605268 -0.150818264112 0.286954119802 -0.176782809198 0.260368447751 -0.179681293666 -0.0528766931966 0.0632795672864 -0.0135432872921 0.233285501599 0.331824161112 -0.133874837309 0.086399000138 -0.242109183222 0.0577154811472 -0.0834767445922 0.181767292321 -0.234544023871 -0.179748266935 -0.0766845773906 -0.0316320508718 0.139140518848 -0.211882576346 0.324451770633 0.188489355147 -0.188066132367 -0.166974943131 -0.237595915794 0.114733025432 -0.0843511262938 0.356773436069
estar_limpiando 0.322368994355 0.0934421271086 0.199773129076 -0.00585896894336 0.688997715712 -0.0892122779042 -0.282766428776 0.186323691159 0.13427531335 0.48177164793 -0.0193902812898 0.116902180016 -0.00512429699302 -0.0962531063706 -0.184140346944 -0.000320103019476 -0.15999917686 0.0662392303348 0.0103839226067 -0.000338912010193 -0.0595279149711 -0.102142706513 0.567036494613 -0.335175387561 0.187884911895 -0.098035890609 0.489674195647 0.0939619820565 -0.0480602486059 -0.183552846313 -0.277161478996 0.477806925774 0.081616487354 -0.292553260922 0.0569536741823 0.12458602339 -0.105992566794 0.0174257531762 -0.0965327594895 0.35314579308 -0.127468485385 0.104238105938 0.251772195101 0.112487855367 -0.242346927524 0.197545737028 0.226319637848 0.132417771965 -0.113288067281 -0.0840661339462 -0.176804270595 0.0608888403513 0.0257563814521 0.129872623831 -0.0824518536683 0.166725393385 0.185433004983 0.0422592386603 0.191372565925 0.224757634103 -0.0741411950439 0.0085430201143 0.232968173921 0.138166990131 0.12842136994 -0.0317807011306 0.0810948330909 -0.0308813229203 0.470543697476 0.24597685039 0.0443774498999 -0.175645470619 0.104829519987 0.120966666378 0.0796657688916 0.134943088517 0.0569800883532 0.353462293744 -0.00211465358734 -0.340087845922 0.0941053684801 0.0077452249825 0.251633495092 -0.0836039632559 0.343139320612 0.0473906099796 0.226517628878 -0.370153725147 -0.0371346920729 -0.271754607558 0.12837001076 0.165526457131 -0.105456988327 0.152267092839 -0.405970662832 0.29771271348 0.167122621089 -0.668506324291 0.386696793139 0.0735160633922 0.0589958750643 -0.334765955806 0.0134377237409 0.522126704454 0.066303640604 -0.168182197958 0.0761543591507 -0.188407475129 -0.386178642511 0.0939744948409 0.245070967823 0.450030326843 0.133042681962 -0.261704824865 -0.0388690056279 -0.112266808748 0.027367092669 0.353920012712 -0.162835564464 0.168895423412 0.100495975465 0.000452666543424 -0.165491163731 0.140946902335 -0.093833938241 -0.362054601312 0.185957912356 -0.02959136758 -0.176865004003 0.0226625204086 -0.0154973864555 0.278464913368 0.182647325099 0.451067939401 0.260408982635 0.138277970254 -0.0225276201963 -0.0214701145887 0.113140680827 -0.0649393200874 -0.190463617444 0.311845265329 -0.0912189371884 0.504263177514 -0.284608177841 0.0585374385118 -0.0928576106671 -0.464123129845 0.00788086652756 0.19487099722 -0.033312019892 -0.0291630551219 -0.201782345772 0.0615005139261 -0.0015397425741 0.1207464654 0.196828983724 -0.00448755268008 0.0857681408525 0.221554677933 -0.181625712663 -0.177112042904 0.198510549963 0.139560592361 -0.00422975420952 -0.0109605575708 -0.0186265744269 0.0919485557824 -0.0781788220629 -0.117885356623 -0.284255021252 0.0252096334007 -0.203170105815 0.309206563979 -0.335560694337 0.146184053272 0.0125069860369 0.342329278588 0.170345954597 0.150578033179 -0.131598645821 0.287858348805 0.139128483832 0.0455634091049 -0.240167140961 0.142801444978 -0.576512768865 0.057597193867 -0.0262781493366 -0.00187461078167 0.226582743227 -0.107802808285 -0.368867859244 0.21855353564 -0.449517428875 -0.124839279801 -0.197378247976 0.200877660885 -0.137758154422 0.105273334309
se_debe_de_ganar 0.333329359069 0.180135617033 0.00462521612644 0.0708005782217 0.20794413425 -0.0207912493497 -0.155082929879 0.0402766382322 -0.00268115848303 0.203508369625 0.0972071141005 -0.00792642682791 0.00583302229643 -0.14003837388 0.00783154089004 -0.16831605637 0.0573650673032 0.173538979143 0.00157093070447 -0.0701468586922 0.199991073459 -0.072890965268 0.240756448824 -0.264342308044 0.0343399979174 -0.04584107548 0.141339607537 -0.070821641013 -0.0273023769259 -0.084672363475 0.0553622432053 0.196843087673 0.0735404938459 -0.0189785901457 0.0140537912957 0.173982158303 0.0839560423046 0.157959172502 -0.188062120229 0.0364424390718 -0.159145514481 0.065974005498 0.0792897604406 0.0811615465209 -0.00816089613363 0.272049114108 0.339231077582 -0.108381817117 0.311993457377 -0.00327959284186 -0.232304882258 -0.0458168450859 -0.00169254280627 -0.132211955264 -0.0208546537906 0.0814650896937 0.0338006448001 0.0823839195073 0.257077153772 0.0935538420454 0.159685655497 -0.0716886781156 0.269684284925 -0.0552855730057 -0.11685500294 -0.0971371922642 -0.112324258778 -0.156177569181 -0.0671005696058 0.0340556576848 0.0529065029696 -0.233972435817 0.0137822681572 -0.070603874512 0.00751501694322 0.0365062132478 0.0381176443771 0.0527213569731 0.177817104617 0.0394179970026 -0.0715715438128 -0.066189883044 -0.0656767813489 -0.16816017963 0.137298274785 -0.215450126678 -0.0645188000053 -0.151649456471 0.0730580454692 -0.133221065626 0.242594908923 0.16786366608 0.159100167453 -0.00617208331823 -0.295078501105 0.0374394729733 0.147554855794 -0.187154017389 -0.0887516862713 0.252865705639 0.208576449426 -0.321218902245 -0.0525050070137 0.119541794062 -0.0448414636776 -0.139922587201 0.0864994712174 -0.236607465893 -0.171729866532 0.0681402059272 0.09596100403 0.249449606985 -0.0321389394812 -0.025997871533 -0.323573328555 -0.151116000488 0.290761653334 0.21805693768 0.105790115427 -0.0450839181431 0.228131595999 -0.0941522810608 -0.0525079313666 -0.0216453094035 0.016232682392 0.0493371710181 -0.213925942779 -0.154908335535 -0.023634372279 0.0366802886128 -0.150610551238 -0.0765592996031 -0.0706427888945 0.134466826916 0.265882410109 -0.0519278589636 -0.0713264751248 0.0921183340251 -0.0630762316287 0.0584970144555 -0.075583527796 0.13059945032 -0.347220342606 0.320628259331 -0.199574306607 -0.0260182260245 -0.0821094959974 -0.318479567766 -0.114489681553 0.397522989661 -0.0419569313526 -0.0252392441034 -0.0543901789933 0.111408524215 0.200140720233 0.145474332385 0.0372355878353 -0.0635738725541 0.161760346964 -0.0567204342224 -0.0367989689112 -0.163081338513 0.00663444027305 0.0905544767156 -0.11311038211 -0.0378761794418 -0.037212180905 0.076251976192 -0.110723052174 -0.066929448396 -0.278707005084 0.109249802306 -0.248412778601 0.181057706475 -0.173669885844 0.0378046175465 -0.0428882315755 0.151599556208 0.269223788753 0.122930202633 -0.132842846215 0.175136333331 -0.0718466248363 0.0260289981961 -0.0517540052533 0.295263285749 -0.253106374294 -0.107175369747 0.205968303606 0.0990943815559 0.0569315608591 -0.195433772169 -0.00178393442184 0.242693765089 -0.178371796384 -0.162980846129 -0.0629415791482 0.0677527915686 -0.18247555467 0.259436469525
voy_a_pagar 0.230362355709 0.236852978822 0.112534580131 -0.154314840833 0.263394990315 0.0753763914108 -0.339894066875 -0.0223116402825 0.0406068898737 0.280482932925 0.193986694018 -0.21232693394 0.172812581062 -0.348121874034 0.0585888689384 0.191175887982 0.0770091190934 0.32952623566 -0.0573245510459 -0.0362850911915 0.0798107162118 -0.0211227486531 0.148288934802 -0.338935757677 -0.128253181775 -0.00944439508021 0.332843477527 0.0254237974683 -0.0641158670187 -0.0200048015298 0.126660614274 0.0524620860815 0.307890487214 -0.303025608261 -0.238311671031 0.388096660376 0.150933146477 0.162662486856 -0.359862705072 -0.050836391747 -0.0278500684847 0.201505040129 0.182987173398 0.0269570847352 0.0985909625888 0.135141889254 0.172144283851 -0.218125489851 0.406459535162 0.0279887827734 -0.332342301806 -0.154511407018 -0.0235105678439 -0.22810044388 -0.0734759594003 0.00020985553662 0.0806184709072 -0.0976206337412 0.283235842983 -0.00912124166886 -0.100816190243 -0.262765785058 0.130606627402 0.112668633461 0.00405038396517 -0.154904911915 -0.091617397964 -0.0364896133542 0.169209082921 -0.148073478912 -0.126668458184 -0.242740993698 -0.0395775685708 0.10907980303 -0.0578473682205 -0.0840919067462 -0.0502083599567 -0.0370064533005 -0.0167811661959 -0.0977294861029 0.0520693790168 0.186493590474 -0.085565391928 0.0177193544805 0.384654223919 -0.219649695481 0.175022539993 -0.408661216497 0.141661042968 -0.101495639731 0.361450488369 0.113209235171 0.220913508907 -0.113441164295 -0.353246986866 -0.0101939762632 -0.0465779683242 -0.150868661702 0.320021256804 0.262421927104 0.039995841682 -0.0522091078262 -0.286916421105 0.2562541912 -0.113767468681 -0.117520026863 0.0181290656328 -0.252605735014 -0.178085460638 -0.120310354978 0.223856675439 0.432564675808 -0.139156075815 -0.028291751941 -0.245260151724 -0.150673045466 0.377949158351 0.109423647324 0.152454460661 -0.195352008566 -0.167351961446 0.0644439123571 0.0259273772438 0.0822251786788 -0.0248877530297 0.171306965252 -0.0756690700849 0.180520109832 -0.0930921624725 0.242780076961 0.0270130683978 -0.0358237326145 -0.213738519698 0.25544201831 0.310622982681 0.258000607292 0.167238715726 0.0404267335931 0.111680921167 -0.0184119989475 0.26593668138 0.163679317882 -0.128407582641 0.257879892985 -0.287601659695 -0.0407248437405 -0.366150443753 -0.419200822711 -0.187508431574 0.00625625004371 0.0174784089128 0.168670386076 -0.21554684639 0.131819198529 0.23058672746 0.159822468956 0.250725184878 0.113689899445 0.0397773312094 -0.0624123091499 -0.329958920678 0.0828325822949 0.181447058916 0.13738625745 -0.129263726374 -0.275628520409 -0.232233273486 0.366767053803 0.127292116483 -0.0847763282557 -0.240780080358 0.174724275867 -0.197106637061 0.222721169392 0.0225780668358 -0.0625789314508 -0.123505938798 0.313201447328 0.0322871046762 0.254951871932 -0.103512828549 0.183120568593 0.0205219238997 0.097973326842 -0.0996371706327 0.399230321248 -0.330187931657 -0.287068724011 -0.0685849649211 0.0304598361254 0.110491166512 -0.119860085348 -0.0113654136658 0.349976403018 -0.314613994832 -0.0360747265319 -0.162017385165 0.311170185606 -0.0339459056656 0.107858935992
puede_haber 0.339748620987 0.22538626194 0.149335615337 -0.0407325846609 0.173087432515 -0.384875372052 -0.127264678478 0.0595335960388 -0.256983734667 0.377567581832 -0.108437377959 0.00360631942749 -0.0819833427668 -0.205328971148 -0.0632448121905 0.0480936318636 0.0623758370057 0.225344181061 0.178856294602 0.102009274065 0.0543298888952 -0.145052414387 0.429223924875 -0.225819733925 0.0700007453561 0.0270600761287 0.510050654411 -0.00187083333731 0.0966049414128 -0.0776120349765 -0.0616049666423 0.118849065155 -0.0447742897086 -0.0138680040836 -0.0773541666567 0.148651402444 0.119960434735 0.0771565809846 -0.0332551728934 0.186406947672 -0.0882308802102 -0.117458086461 0.107800278813 -0.0404109507799 -0.0991133823991 0.282936051488 0.0749183800071 -0.0387617070228 0.185069926083 0.163865029812 -0.439077720046 -0.0285647860728 0.071037992835 -0.0798000507057 -0.227552890778 0.0847063288093 0.192361406982 0.315137043595 0.273104950786 0.0934784151614 0.0950815863907 0.113625749946 0.450905829668 -0.124956853688 -0.101099763066 -0.00362561317161 -0.0163826160133 -0.19951431267 0.0214962586761 0.132751652971 0.400458678603 -0.262324040756 -0.296622604132 -0.091543648392 -0.0169561654329 0.180401507765 0.0635187309235 0.216008674353 0.13647159934 -0.053929832764 -0.150000846392 -0.110864043236 -0.00563463009894 -0.159742542543 0.204890675843 -0.287439972162 -0.0249994881451 0.0693427966908 0.277447469532 0.0157902240753 0.459194585681 0.310342140496 0.381106682122 0.0828909054399 -0.483372077346 -0.100924395025 0.179622106254 -0.160998359323 -0.0133650042117 0.384742483497 -0.0458478387445 -0.193041935563 0.0150208929554 0.0933362646028 -0.0714154206216 -0.283186912537 0.391348287463 -0.281474560499 -0.478641882539 0.126608822495 0.0985024441034 0.319598823786 0.0128832347691 -0.0898902993649 -0.189642380923 -0.374454826117 0.34350829199 -0.0130285099149 0.170603200793 -0.0883546285331 0.098301589489 -0.232596695423 0.043694704771 0.091464471072 0.0396080110222 -0.0834521765501 0.196222364902 -0.134273096919 -0.114592922851 0.23062966764 0.162979327142 -0.149659514427 -0.205399267375 0.23467117548 0.227619407699 0.0720108374953 0.034505370073 0.228329472244 0.0822129845619 0.155028548092 -0.158234365983 0.242486670613 -0.689650714397 0.418109588325 -0.257403180003 -0.0661637277808 -0.095520241186 -0.434174373746 -0.155635708943 0.473532930017 -0.114494428039 0.00244083255529 -0.214251950383 0.0157076120377 0.195849351585 0.0315614845604 0.186388865113 0.164324186742 0.0582024864852 -0.158549830317 -0.0039496421814 -0.119354694616 0.138611644739 0.075712069869 -0.0291026495397 -0.233693450689 0.0309286681004 -0.126250717789 -0.209979925305 -0.0855461303145 -0.188741065562 0.162947554141 -0.118445596658 0.120161626488 -0.346310287714 -0.172648333013 -0.139366226271 -0.00560203194618 -0.0612143948674 0.188802968711 -0.176330460235 0.426635339856 -0.364882171154 0.166998669505 -0.0635806545615 0.0607522884384 -0.436345532537 -0.244065478444 -0.131186001003 -0.232149515301 -0.165535813197 -0.0973346196115 -0.140667288797 0.276136409491 -0.000966381281614 -0.160149043426 -0.0380181195214 0.0566307008266 -0.0414737761021 -0.00118510425091
pongo_a_sacar 0.238565812508 0.115417530605 -0.0128873636325 0.11372021089 0.440554598967 0.195013493299 -0.0974643311153 0.122763169309 -0.0795447807759 0.332452704509 0.0358198136091 0.01416995128 0.152446815123 -0.132841641704 -0.139944699903 -0.084160387516 -0.0837665920456 0.13983281826 0.0201709164927 -0.0747079427044 -0.050836669902 -0.172530263662 0.208796575665 -0.320910796523 0.0113204941154 -0.0573984930913 0.0806818157434 -0.0855242585142 0.0852535665035 -0.192432680478 -0.152186003203 0.0480644976099 0.196620094279 -0.276388754447 -0.134162058433 0.305392732223 -0.120062366128 0.396862909198 -0.223429506024 0.126938693225 -0.0429636264841 0.0798282449444 0.0319113830725 0.074611077706 -0.0210928718249 0.111541991433 0.134860520562 -0.19770536075 0.345521822572 -0.104961957317 -0.314221729835 -0.184027243406 0.116128236055 0.0111232300599 -0.0510995040337 0.15121836712 0.264384786288 -0.192233011127 0.0729181965192 0.0766612514853 -0.128925611575 -0.252431531747 0.22491595149 -0.0213377202551 0.074444959561 -0.0405754223466 0.169069384535 -0.0665515313546 0.0896404956778 -0.0740149089446 -0.17906524241 -0.337257360419 0.2170287172 0.101563981113 -0.0271168202162 -0.106754218539 -0.0275250089665 0.0490983606627 -0.180706391732 -0.236900153259 0.141688201576 -0.149140705665 -0.191004614035 -0.0908122050265 0.313816095392 -0.370256816347 0.259008844694 -0.224100271861 0.000575358668963 -0.174964522322 0.224642515182 0.297072167198 0.00366380314032 -0.0640880763531 -0.455076913039 -0.0636522298058 0.227390478055 -0.314826457451 0.170010258754 0.217686076959 0.247434890519 -0.291944121321 -0.12545333306 0.185833285252 -0.155502967536 -0.0564206714431 -0.150804753105 -0.462239071727 -0.252769480149 0.00261076912284 0.148018218887 0.178904785464 -0.12148578465 -0.0250220546344 -0.0994211882353 -0.0845891783635 0.222113735353 0.342265392343 0.199796314041 -0.281322787205 0.0414864122868 -0.0433226488531 -0.0196743009922 0.00646013890704 0.139414812128 0.150185688088 -0.231004325052 -0.0498981525501 0.0370567673817 0.100846956174 -0.109621818721 0.125279133519 -0.153448124397 0.194712868581 0.156228865807 0.0595365216335 0.0912422848245 0.0545069562892 0.12201145788 0.115822243194 0.0202169219653 0.132940143347 -0.0747399255633 0.497170269489 -0.203763802846 -0.0584660780927 -0.199281639109 -0.3019254903 -0.0516338758171 -0.00978936503331 0.0733613818884 0.0712862325211 -0.302882311245 0.125245886544 0.0561486085256 0.151486170789 0.338996703426 0.175016892453 0.04729325821 0.109304003417 -0.290226792296 0.0559535895785 0.0838054480652 0.0182851801316 -0.215779264768 -0.320603892207 0.016028072685 0.167878081401 -0.0335557560126 -0.0539223675927 -0.273746064398 0.280970906218 -0.215465672314 0.187966614962 -0.269613842169 0.126457589368 -0.219892760118 0.226738259196 0.134536364426 -0.0176821326216 -0.288479258617 0.0211382086078 0.119589406376 0.170361871521 0.0224817246199 0.3544201081 -0.438911100229 -0.0145412733157 0.0712836602082 0.102677149077 0.222830409805 -0.135181901356 -0.306013166904 0.162823962669 0.0134592900674 -0.106260076165 -0.181034117937 0.127473230163 -0.0971356630325 0.238047217329
tienen_que_ser 0.211862728 0.0931531985601 0.0512715553244 0.028786085546 0.245809455713 -0.0562348592406 -0.129477608328 0.0835024349702 -0.00357125326991 0.282287761569 -0.0551785888771 -0.12667296951 -0.163622231067 -0.145332974692 -0.058637155996 -0.110462119182 0.0677334479988 0.162584010201 0.154267678658 0.173561654675 0.175923094153 0.0391593069459 0.410905445615 -0.281418189406 -0.0349213443696 -0.166780340175 0.29319858551 0.0706830794613 -0.0513875558972 -0.133145970603 0.0714290812612 0.201477440695 0.0206702103217 -0.176000138124 0.0365328739087 0.0715235744913 -0.0961268457274 0.243230129282 -0.108258994296 0.0410908448199 0.048972573597 -0.167187035084 0.140416582425 0.0735437050462 -0.0704485339423 0.251673320929 -0.00767041463405 0.00150068725149 0.166144095361 -0.0821501562993 -0.188573313256 -0.0813992271821 0.0936904363334 -0.0825523622334 0.0298311375082 0.0171944852918 0.0295595588783 0.241118460894 0.235568066438 0.137684258322 0.0191106547912 0.145109872023 0.440910865863 -0.188609367857 -0.105933005611 -0.0521459579468 0.0696537519495 -0.21673813959 0.0694442118208 0.110715791583 0.158404015005 -0.10534034421 0.0567877693102 -0.111517896255 0.0368206438919 0.0774832755948 -0.0250598782053 0.232538844148 0.270526056488 0.0401753534873 -0.0812159230312 -0.00889094049732 -0.0642854894201 -0.248640904824 0.204356128971 -0.344660893083 -0.0362940058112 -0.0164541903262 0.0930385130147 -0.123546483616 0.182321026921 0.266573116183 0.257162640492 0.0180028034374 -0.326285973191 -0.186623266588 0.116286531091 -0.275370617708 0.106733719508 0.343549842636 0.21002847453 -0.413027410706 0.0178752009912 0.212747101982 0.0382405097286 -0.175557094316 0.154617340614 -0.285609061519 -0.214979480331 0.0482750833035 0.0599123587211 0.225458741188 -0.0471564320227 -0.0441561813156 0.0613268837333 -0.123350953062 0.279048740864 0.362496157487 -0.0910729731744 0.0528519147386 0.0915416777134 -0.0597107242793 -0.101050399244 -0.13669966689 -0.0516710312416 0.00436334591359 -0.0748770187298 -0.015271998321 -0.0800136309117 0.12956058234 -0.11526286602 0.11163390552 0.00557849866649 0.214457402627 -0.0211191382259 0.182262315104 -0.0195428654552 0.00946978976329 -0.0847156016777 0.0004230607301 -0.104692483942 0.255196454624 -0.41145957013 0.215401619673 -0.370965649684 -0.104334870974 -0.0591134130955 -0.443735212088 -0.138425755004 0.455752333005 0.0194741835197 -0.126753650606 -0.0912530720234 0.132786989212 0.00633876274029 0.128378726542 0.193317795793 0.118561401963 0.168924723131 0.0196822571646 -0.120120915274 -0.143856065969 0.109568034609 -0.141985195378 0.00423176710804 0.0302672758698 0.0674283492068 0.159390951196 -0.133398868144 -0.04257859538 -0.105766435464 0.205166151126 -0.120667670543 0.347360620896 -0.348478178183 -0.0846287055562 -0.0263198191921 -0.0223642314474 -0.0529859885573 0.043778643012 -0.113104680941 0.109648345659 -0.240562353283 0.121984772384 -0.0819999774297 0.275688057144 -0.374099984765 -0.093553096056 0.125213605662 0.0271353361507 0.124954892943 -0.129867368688 0.0418242995317 0.15350183472 -0.182194901009 -0.255367845297 -0.0939237674077 0.145657826836 -0.102097002013 0.193365633488
pueden_sacar 0.228185050189 0.0908362425398 0.228334359825 -0.120221640915 0.426239192486 -0.0110928416252 -0.273483261466 0.196085594594 -0.181549400091 0.348853141069 -0.0490141659975 -0.0481506958604 -0.0474263820797 -0.0444023963064 -0.105169285089 -0.00620164722204 0.183173663914 0.218740990385 0.235251076519 0.0303110480309 -0.0809397529811 -0.154242772609 0.46696305275 -0.136849220376 0.116466572508 -0.0918937772512 0.608391359448 0.0806859284639 -0.148941658437 -0.192396700382 0.0116292228922 0.217166259885 0.374283760786 0.15166053921 -0.125461943448 0.269390016794 0.00716084241867 0.109447352588 -0.212015110999 0.0398644730449 -0.0215781566221 -0.102048780769 0.0876678489149 0.0756040364504 -0.248908631504 0.106852373108 0.189957875758 0.0234300419688 0.284161098301 -0.0260938704014 -0.250697702169 -0.105758277699 0.174974005669 -0.106057556812 0.0553697869182 0.182810790837 0.0485787428916 0.152019076049 0.174724958837 0.372470542789 -0.136179588735 -0.235785990953 0.449030548334 -0.0622096657753 -0.0315926522017 -0.0283226035535 0.0793137587607 -0.0559711121023 -0.0529000759125 -0.203287862241 0.375429749489 -0.0616027861834 0.101612959057 0.073789936956 0.247424155474 0.0418824590743 0.0238974448293 0.150735031813 -0.206543507054 -0.113938127179 -0.141631068662 -0.267578102648 -0.00552533194423 -0.148478368297 0.329697012901 -0.327174827456 0.205007405952 0.00203882157803 -0.0373335555196 -0.11164395418 0.460901036859 0.417908489704 0.138487115502 0.0882758051157 -0.572266593575 -0.233973883092 0.223163604736 -0.128014659509 0.296930670738 0.402730681002 0.233565295115 -0.416293054819 0.0741140954196 0.275297753513 -0.0434533283114 -0.204242497683 0.285371385515 -0.11620455049 -0.251545757055 0.0545082017779 -0.00516092777252 0.072362402454 0.0320778787136 0.0159690660657 -0.108175773174 -0.312065713108 0.373051464558 0.516942441463 0.141717612743 0.0232918262482 0.299035295844 -0.0655369292945 -0.076138475677 -0.177494212985 0.099532097578 -0.0393313094974 -0.0489409640431 -0.142511762679 0.0232557281852 0.290280099958 -0.000137634575367 -0.0820882692933 -0.386327549815 0.309662910178 -0.0701814023778 -0.0365877188742 0.043180577457 0.0805355617777 -0.286061160266 -0.0226861573756 -0.00629239529371 0.243677627295 -0.438987653702 0.259243138134 -0.0392327383161 -0.0336144790053 -0.208420671523 -0.203789152205 0.00289930216968 0.245341617614 -0.0510923657566 0.0606192890555 -0.124401945621 0.0514836385846 0.207014538348 -0.0223209187388 0.222579076886 0.0528309047222 0.0787873864174 0.0509515553713 -0.0294512286782 -0.300336278975 0.0642819907516 0.288937717676 -0.127544979507 -0.135957194492 0.166442878544 0.319066934288 -0.211891807616 0.0373801402748 -0.19477392151 0.164458677173 -0.329055026174 0.278288677335 -0.507055640221 -0.248793859035 -0.171128418297 0.166712805629 0.00349072366953 0.328808881342 -0.525025978684 0.139546960592 -0.0697797266766 0.0892483592033 -0.0388578549027 0.262449298054 -0.412877470255 -0.241678789258 -0.0397185981274 0.128158923239 -0.0506296828389 -0.23519653827 -0.129537530243 0.354038428515 -0.101902004331 -0.159206958488 -0.254956915975 0.142976390198 -0.265986613929 0.238502822816
pueden_sacar 0.228185050189 0.0908362425398 0.228334359825 -0.120221640915 0.426239192486 -0.0110928416252 -0.273483261466 0.196085594594 -0.181549400091 0.348853141069 -0.0490141659975 -0.0481506958604 -0.0474263820797 -0.0444023963064 -0.105169285089 -0.00620164722204 0.183173663914 0.218740990385 0.235251076519 0.0303110480309 -0.0809397529811 -0.154242772609 0.46696305275 -0.136849220376 0.116466572508 -0.0918937772512 0.608391359448 0.0806859284639 -0.148941658437 -0.192396700382 0.0116292228922 0.217166259885 0.374283760786 0.15166053921 -0.125461943448 0.269390016794 0.00716084241867 0.109447352588 -0.212015110999 0.0398644730449 -0.0215781566221 -0.102048780769 0.0876678489149 0.0756040364504 -0.248908631504 0.106852373108 0.189957875758 0.0234300419688 0.284161098301 -0.0260938704014 -0.250697702169 -0.105758277699 0.174974005669 -0.106057556812 0.0553697869182 0.182810790837 0.0485787428916 0.152019076049 0.174724958837 0.372470542789 -0.136179588735 -0.235785990953 0.449030548334 -0.0622096657753 -0.0315926522017 -0.0283226035535 0.0793137587607 -0.0559711121023 -0.0529000759125 -0.203287862241 0.375429749489 -0.0616027861834 0.101612959057 0.073789936956 0.247424155474 0.0418824590743 0.0238974448293 0.150735031813 -0.206543507054 -0.113938127179 -0.141631068662 -0.267578102648 -0.00552533194423 -0.148478368297 0.329697012901 -0.327174827456 0.205007405952 0.00203882157803 -0.0373335555196 -0.11164395418 0.460901036859 0.417908489704 0.138487115502 0.0882758051157 -0.572266593575 -0.233973883092 0.223163604736 -0.128014659509 0.296930670738 0.402730681002 0.233565295115 -0.416293054819 0.0741140954196 0.275297753513 -0.0434533283114 -0.204242497683 0.285371385515 -0.11620455049 -0.251545757055 0.0545082017779 -0.00516092777252 0.072362402454 0.0320778787136 0.0159690660657 -0.108175773174 -0.312065713108 0.373051464558 0.516942441463 0.141717612743 0.0232918262482 0.299035295844 -0.0655369292945 -0.076138475677 -0.177494212985 0.099532097578 -0.0393313094974 -0.0489409640431 -0.142511762679 0.0232557281852 0.290280099958 -0.000137634575367 -0.0820882692933 -0.386327549815 0.309662910178 -0.0701814023778 -0.0365877188742 0.043180577457 0.0805355617777 -0.286061160266 -0.0226861573756 -0.00629239529371 0.243677627295 -0.438987653702 0.259243138134 -0.0392327383161 -0.0336144790053 -0.208420671523 -0.203789152205 0.00289930216968 0.245341617614 -0.0510923657566 0.0606192890555 -0.124401945621 0.0514836385846 0.207014538348 -0.0223209187388 0.222579076886 0.0528309047222 0.0787873864174 0.0509515553713 -0.0294512286782 -0.300336278975 0.0642819907516 0.288937717676 -0.127544979507 -0.135957194492 0.166442878544 0.319066934288 -0.211891807616 0.0373801402748 -0.19477392151 0.164458677173 -0.329055026174 0.278288677335 -0.507055640221 -0.248793859035 -0.171128418297 0.166712805629 0.00349072366953 0.328808881342 -0.525025978684 0.139546960592 -0.0697797266766 0.0892483592033 -0.0388578549027 0.262449298054 -0.412877470255 -0.241678789258 -0.0397185981274 0.128158923239 -0.0506296828389 -0.23519653827 -0.129537530243 0.354038428515 -0.101902004331 -0.159206958488 -0.254956915975 0.142976390198 -0.265986613929 0.238502822816
pueden_hacer 0.343314759433 0.234780795872 0.254611544311 -0.0165041163564 0.415996342897 -0.0381573289633 -0.203517898917 0.253663443029 -0.0596613372327 0.188433919102 0.0612005665898 -0.154485426843 -0.0313516259193 -0.147337311879 0.0269293189049 -0.0439418815076 0.161853916943 0.322998598218 0.291904881597 0.153753307648 0.022469157353 0.0320473294705 0.438878133893 -0.137449141126 0.0573041569442 -0.0625758692622 0.58213557303 0.0939340591431 -0.0467288717628 -0.12873159349 -0.0731601379812 0.14595066011 0.28951665014 0.0776418065652 0.000811031088233 0.268253356218 0.0960944667459 0.0478647723794 -0.0971326641738 0.170044645667 -0.0704462837894 -0.0285148471594 0.286936238408 0.0158356549218 -0.251209318638 0.139001144096 0.116170268506 -0.0866374522448 0.263152502477 -0.153629697859 -0.149502236396 -0.22797254473 0.0650801062584 -0.0479096346535 -0.0902206413448 0.176475569606 -0.000895952805877 0.174477748573 0.30824867636 0.291846141219 0.00596302561462 -0.194501943886 0.465406991541 -0.12609481439 -0.1792524755 0.0356488712132 0.0370743311942 0.0911699086428 -0.16252245754 -0.181875705719 0.396881222725 -0.0402199029922 0.11417600885 0.0405722334981 0.092451505363 0.0242425985634 0.0869508832693 0.0672578588128 -0.0958856437355 -0.0833328706212 -0.103420466185 -0.217372672632 0.010105220601 -0.0503209624439 0.177276112139 -0.282299563289 0.139021957293 0.0248046517372 0.159040212631 -0.013713686727 0.490894645452 0.406535416842 0.181462265551 0.289394464344 -0.460537984967 -0.296241078526 0.243894033134 -0.202207356691 0.170043185353 0.51801815629 0.212581733242 -0.399375706911 -0.00243456289172 0.409709915519 -0.122684840113 -0.31524117291 0.324184373021 -0.0887292083353 -0.207411456853 0.0305642117746 -0.0426254123449 0.211608029902 0.0207190103829 -0.169839670882 -0.202365621924 -0.314057894051 0.377727940679 0.261974811554 0.269379645586 0.109363719821 0.228365436196 -0.0537641271949 -0.146291323006 -0.299375670031 0.215865079314 0.0208001956344 0.0162086263299 -0.0393869504333 0.0753496158868 0.364588117227 -0.0832989402115 -0.102242618799 -0.265370273963 0.3056489015 0.0289063304663 0.140385851264 0.132605699822 0.117019192316 -0.226586250588 -0.102789193392 0.0361269749701 0.378875747323 -0.509820856154 0.124569647014 -0.177707314491 -0.0153156560846 0.00556899607182 -0.335476897657 -0.0352216167375 0.458538740873 0.00254072062671 0.0156967993826 -0.300931431353 0.110564775765 0.098025161773 -0.101489434019 0.14100683853 0.117811907083 0.0877383612096 -0.0705844759941 -0.02269680053 -0.209767527878 0.0842537172139 0.248069129884 -0.0749309909879 -0.0119239352643 0.0494807958603 0.300512753427 -0.216653689742 -0.082107976079 -0.0373990535736 0.190669327974 -0.228092461824 0.226791288704 -0.630708009005 -0.22787733376 -0.0138490498066 0.11643737182 -0.0746590532362 0.532827213407 -0.371859148145 0.276093296707 -0.0258121304214 -0.037660446018 -0.235402978957 0.34801876545 -0.444012790918 -0.177901603281 -0.0408367775381 0.168001957238 0.0615257769823 -0.150359641761 -0.111893780529 0.326701432467 -0.0615110471845 -0.0809636507183 -0.13624388352 0.153739633039 -0.125992752612 0.282774552703
están_componiendo 0.0936792269349 -0.149242524058 -0.144445832819 0.0396396145225 0.742649525404 -0.0359611324966 -0.672456130385 0.236706130207 -0.00997390970588 0.432386472821 0.101784601808 -0.00752809643745 -0.0683200471685 0.017877869308 -0.315027520061 -0.0769679732621 -0.160771563649 0.067540705204 0.0949850704055 -0.0922471806407 0.22937489301 -0.0207638144493 0.296560883522 -0.0818144567311 -0.044195625931 -0.39367762208 0.265889316797 0.038830332458 -0.318361908197 -0.0655007958412 0.0438792225905 0.272074297071 0.0611633136868 -0.297192558646 0.12905321084 -0.0618599597365 -0.232086770236 -0.0773389972746 0.201345138252 0.051982305944 0.243113145232 0.0513694854453 0.125126332045 0.0357491262257 -0.285072155297 -0.0649780929089 0.0751722082496 0.1486214865 0.0167252216488 -0.377908043563 -0.0905627831817 0.110458835727 -0.0048873340711 0.0319852977991 0.233280871063 0.151433832943 0.0946966446936 0.13364715036 0.235078088939 0.160303918645 -0.00232372805476 -0.122265703976 0.0965481325984 -0.231969825923 -0.0341435195878 -0.298805050552 0.0141670443118 0.108923256397 0.211198240519 0.142992634326 0.113641060889 -0.0765495300293 0.283785738051 0.155971491709 0.132623646408 -0.250023239874 0.0269253794104 -0.107389777899 0.119962306693 -0.19039170444 0.0595732224174 0.0765420827083 0.116361655295 -0.145660080016 0.257635399699 -0.0831953356974 0.044399343431 0.0229788068682 -0.064884852618 -0.244780210778 0.148436393589 0.170293467119 -0.00958736613393 0.188340868801 -0.285932712257 0.0240231193602 0.146721867844 -0.562556967139 0.464462921023 0.0460611581802 0.107850383967 -0.174287540372 -0.0452349111438 0.301655352116 -0.177896879613 -0.203168792184 0.0297042870661 -0.374792076647 -0.154592916428 -0.0210827142 -0.14295483008 0.427433133125 0.190245684236 -0.112481825054 0.109933502972 -0.183346828446 -0.0106463059783 0.429317399859 -0.181552637368 0.308909773827 0.130805678666 -0.0918610524386 -0.0690396632999 -0.0593013316393 -0.0464265197515 -0.00279350578785 0.187730014324 -0.120417553 0.0109919542447 0.322372183204 -0.0397549569607 0.34588766098 0.0685487166047 0.489237248898 0.382191345096 0.134245872498 -0.37515629828 0.0804040431976 0.159825194627 -0.00788898952305 -0.110749747604 0.402241051197 -0.589043736458 0.294559881091 -0.363512694836 0.0107216872275 -0.0813840329647 -0.212506527081 -0.11155179888 0.0505666444078 0.221864998341 -0.108135335147 -0.169515065849 -0.0639131143689 0.0185975203058 0.0213745161891 0.226753570139 0.205535270274 0.150347060524 -0.0655506812036 -0.167331911623 0.0872666463256 0.223680198193 0.121593201533 -0.234565392137 0.131894029677 0.114149536937 0.269260577857 -0.0775717478245 0.00249469280243 -0.147988643497 0.342358931899 -0.241184934974 0.291094552726 -0.391439575702 -0.00493666098919 0.0273369587958 0.428970426321 0.176149241626 0.283101469278 -0.123255878687 0.1089903377 -0.091109232977 -0.28049062565 -0.363216109574 0.341095417738 -0.339705750346 0.0492845065892 -0.0982712786645 -0.0360781210475 0.192721299827 -0.273567646742 -0.045281495899 0.311830630526 0.0168842151761 -0.0258719325066 -0.0487833434017 0.136593908072 -0.223467357457 0.125625194982
estamos_hablando 0.175567060709 -0.00643139332533 0.00907483603805 -0.310740794986 0.490565121174 -0.119146514684 -0.310406073928 0.0305105266161 0.223804175854 0.304937943816 0.485158160329 -0.0630450174212 0.211250478402 -0.0278850719333 -0.0335165895522 0.0173015259206 -0.0317901140079 0.0636388473213 -0.0604282133281 -0.35287213698 0.246899887919 -0.0256189741194 0.501227751374 -0.297432936728 0.0140732377768 -0.143915247172 0.192294642329 -0.12290123105 -0.0930203162134 -0.158271045424 -0.011593606323 0.281560212374 -0.0477810502052 -0.441235288978 -0.0195345757529 0.120518248528 0.168578334153 0.076057208702 0.113214587793 0.271153148264 0.199070461094 0.199168428779 0.337856337428 0.367488533258 -0.265951782465 -0.110347164795 0.244091454893 0.091623775661 0.15500119701 -0.408776983619 -0.200533352792 -0.0657006688416 0.0862594489008 0.0954487174749 0.097707382869 0.273754201829 0.308138512075 -0.23556156829 0.10785585735 0.119575537741 0.183207586408 -0.285459063947 0.0733065195382 -0.0890243053436 0.191437251866 -0.0745299720438 -0.142742458731 -0.0703928051516 0.13215545658 0.184162013233 0.00174988806248 -0.137654431164 -0.0178195049521 0.2678867504 0.0199837032706 0.0193437747657 -0.150160606951 -0.0194792809198 0.176572784781 -0.253977589309 -0.146659419406 0.385678380728 0.118271373212 0.075306840241 0.475519925356 -0.0340866781771 0.110177817754 -0.20520965755 0.000595346093178 -0.0635774154216 -0.0798553265631 0.38148906827 -0.0184589400887 0.145574271679 -0.433719038963 -0.105142109096 0.307343810797 -0.484915480018 0.282636776567 0.0759204886854 0.340410113335 -0.29174285382 0.0383300827816 0.44623427093 0.21177585423 -0.311147108674 -0.0972700510174 -0.376642912626 -0.0916575421579 -0.199721528217 0.00772116333246 0.281932145357 0.536030128598 -0.293536797166 0.0429936125875 -0.231020770036 0.0349627248943 0.183573948219 0.165584124625 0.215807676315 -0.369417540729 -0.132759213448 -0.0738392639905 -0.0135583840311 0.0587328802794 -0.270339742303 0.158827676205 0.0472404705361 0.209516805597 0.408234104514 0.043626151979 0.272186905146 -0.10890888609 0.219681870192 0.247114665806 0.22383517772 -0.123816385865 0.313222952187 0.14539720118 0.18489690125 -0.197462601587 0.277802806348 -0.257856830955 0.487602800131 -0.328101411462 -0.0441856216639 -0.177458213642 -0.263205237687 -0.141793198884 0.252213561907 0.274989105761 0.181976450607 -0.319490894675 0.0302988449112 0.0642314022407 0.178416460752 0.30278518796 0.316330865026 0.204375728965 -0.0236630383879 -0.358289942145 0.0863958522677 0.32132576406 0.194082789123 -0.00525625795126 -0.0952171608806 -0.0225141029805 0.384502217174 -0.0672866692767 -0.0920330602676 -0.0705265691504 0.63335326314 0.040362354368 0.274969182909 -0.37585644424 -0.287499912083 0.216512866318 0.196605712175 -0.147377323359 0.409036144614 -0.0580751188099 0.128486070782 -0.047836728394 0.0185419842601 -0.449400290847 0.0759569816291 -0.314212650061 0.180222287774 -0.0791875496507 0.0509123047814 0.257738783956 -0.140940880403 -0.111256688833 0.307679846883 -0.217633984983 -0.142548905686 -0.214338667691 0.00142424926162 0.0849020890892 0.238803140819
estamos_hablando 0.175567060709 -0.00643139332533 0.00907483603805 -0.310740794986 0.490565121174 -0.119146514684 -0.310406073928 0.0305105266161 0.223804175854 0.304937943816 0.485158160329 -0.0630450174212 0.211250478402 -0.0278850719333 -0.0335165895522 0.0173015259206 -0.0317901140079 0.0636388473213 -0.0604282133281 -0.35287213698 0.246899887919 -0.0256189741194 0.501227751374 -0.297432936728 0.0140732377768 -0.143915247172 0.192294642329 -0.12290123105 -0.0930203162134 -0.158271045424 -0.011593606323 0.281560212374 -0.0477810502052 -0.441235288978 -0.0195345757529 0.120518248528 0.168578334153 0.076057208702 0.113214587793 0.271153148264 0.199070461094 0.199168428779 0.337856337428 0.367488533258 -0.265951782465 -0.110347164795 0.244091454893 0.091623775661 0.15500119701 -0.408776983619 -0.200533352792 -0.0657006688416 0.0862594489008 0.0954487174749 0.097707382869 0.273754201829 0.308138512075 -0.23556156829 0.10785585735 0.119575537741 0.183207586408 -0.285459063947 0.0733065195382 -0.0890243053436 0.191437251866 -0.0745299720438 -0.142742458731 -0.0703928051516 0.13215545658 0.184162013233 0.00174988806248 -0.137654431164 -0.0178195049521 0.2678867504 0.0199837032706 0.0193437747657 -0.150160606951 -0.0194792809198 0.176572784781 -0.253977589309 -0.146659419406 0.385678380728 0.118271373212 0.075306840241 0.475519925356 -0.0340866781771 0.110177817754 -0.20520965755 0.000595346093178 -0.0635774154216 -0.0798553265631 0.38148906827 -0.0184589400887 0.145574271679 -0.433719038963 -0.105142109096 0.307343810797 -0.484915480018 0.282636776567 0.0759204886854 0.340410113335 -0.29174285382 0.0383300827816 0.44623427093 0.21177585423 -0.311147108674 -0.0972700510174 -0.376642912626 -0.0916575421579 -0.199721528217 0.00772116333246 0.281932145357 0.536030128598 -0.293536797166 0.0429936125875 -0.231020770036 0.0349627248943 0.183573948219 0.165584124625 0.215807676315 -0.369417540729 -0.132759213448 -0.0738392639905 -0.0135583840311 0.0587328802794 -0.270339742303 0.158827676205 0.0472404705361 0.209516805597 0.408234104514 0.043626151979 0.272186905146 -0.10890888609 0.219681870192 0.247114665806 0.22383517772 -0.123816385865 0.313222952187 0.14539720118 0.18489690125 -0.197462601587 0.277802806348 -0.257856830955 0.487602800131 -0.328101411462 -0.0441856216639 -0.177458213642 -0.263205237687 -0.141793198884 0.252213561907 0.274989105761 0.181976450607 -0.319490894675 0.0302988449112 0.0642314022407 0.178416460752 0.30278518796 0.316330865026 0.204375728965 -0.0236630383879 -0.358289942145 0.0863958522677 0.32132576406 0.194082789123 -0.00525625795126 -0.0952171608806 -0.0225141029805 0.384502217174 -0.0672866692767 -0.0920330602676 -0.0705265691504 0.63335326314 0.040362354368 0.274969182909 -0.37585644424 -0.287499912083 0.216512866318 0.196605712175 -0.147377323359 0.409036144614 -0.0580751188099 0.128486070782 -0.047836728394 0.0185419842601 -0.449400290847 0.0759569816291 -0.314212650061 0.180222287774 -0.0791875496507 0.0509123047814 0.257738783956 -0.140940880403 -0.111256688833 0.307679846883 -0.217633984983 -0.142548905686 -0.214338667691 0.00142424926162 0.0849020890892 0.238803140819
están_haciendo 0.359293937683 -0.0271845012903 -0.0293981730938 -0.0360350906849 0.459894493222 0.00185783207417 -0.413108229637 0.189029350877 0.00164974853396 0.221881289035 0.0902724564075 -0.107640486211 -0.0207787547843 -0.234105944633 -0.123414942995 -0.18776948005 -0.248251955956 0.119112085551 0.228485996602 0.00383395701647 0.218078613281 0.0927243162878 0.313747882843 -0.296927943826 0.147307153791 -0.259469989687 0.152360614389 0.062073841691 -0.231642032042 -0.260493237525 -0.0243923510425 0.317932963371 0.108120262623 -0.276456698775 0.0341383256018 0.09821164608 -0.139729324728 -0.0447790588951 0.128288790584 0.274874694645 0.0731434188783 0.141157564707 0.14809897542 0.171480238438 -0.192940883338 -0.0116241704673 0.145470164716 0.205644838512 0.059803398326 -0.196234457195 0.0302483923733 0.0431694348808 0.00421777553856 0.0942783132195 0.0414085485972 0.238210134208 0.154376540333 0.0748697370291 0.249742515385 0.234506286681 0.0929516330361 -0.194519005716 0.180354323238 -0.1785563007 -0.0715677002445 -0.106526758522 0.0551422089338 -6.053596735e-06 0.159637890756 0.0676028728485 0.175212364644 0.00860342383385 0.256491415203 0.0604326780885 0.0530505925417 -0.00992733577732 0.158123802394 -0.00142382830381 0.236014276743 -0.201630853117 -0.000892873387784 0.0605526375584 0.189008027315 -0.0400955546647 0.344370462 -0.047392103821 0.0688676312566 -0.0848297607154 0.0686954632401 0.0036211963743 0.19995682314 0.283789815381 0.0235607149079 0.39834484458 -0.254129983485 -0.129118788987 0.225131466985 -0.552236810327 0.301488496363 0.26013289392 0.12082831189 -0.307868048549 0.0363245587796 0.320034444332 -0.195012152195 -0.126219464 0.136788763106 -0.21899638325 -0.0799508914934 0.00684982538223 -0.122026152909 0.480336070061 0.0899596847594 -0.207641214132 0.0351652055979 -0.151653543115 0.0772122517228 0.364954702556 -0.0474818870425 0.223781434819 0.182321876287 0.0101409889758 -0.150832217187 -0.201695587486 0.166384046897 -0.0607349723577 0.0960023254156 0.0197345940396 -0.0575032904744 0.275410663337 -0.0893624573946 0.314673304558 0.0353802144527 0.350033655763 0.348465576768 0.0704675670713 -0.192772842944 0.0253670401871 -0.0282090269029 -0.000536065548658 -0.0874561481178 0.164420105517 -0.376541174948 0.228039845824 -0.292209863663 0.0786413550377 0.0952914655209 -0.212987298146 0.0512321963906 0.214188944548 0.160097483546 -0.108442513272 -0.220127224922 0.027994133532 -0.0470003286609 -0.0378794185817 0.170095846057 0.139940228313 0.157129637082 0.0364199131727 -0.0308131687343 -0.0428324928507 0.23050443083 0.040625076741 -0.171863302588 0.208675082773 0.0941609703004 0.232464004308 -0.188674926758 -0.110940091312 -0.0143978819251 0.267696917057 -0.14575143531 0.368103280663 -0.564154043794 0.0737342123175 -0.00589494034648 0.230577528477 -0.00585440546274 0.465711370111 -0.2698905617 0.0910881981254 -0.0390156507492 -0.215025562793 -0.282164342701 0.332015901804 -0.346229672432 0.0857410021126 -0.00139807909727 0.0437203315087 0.261669918895 -0.289261102676 -0.0895501989871 0.322318424471 -0.204319804907 -0.0796940848231 0.000987019389868 0.133786529303 -0.0311899594963 0.334729902446
anda_pidiendo 0.133936461061 0.028713196516 0.202988244593 0.0580092426389 0.507736474276 -0.0751717612147 -0.251632656902 0.103552168235 0.0230182446539 0.143743535504 0.0130240619183 -0.197762557305 0.39496062696 -0.348649501801 0.159868061543 0.0155930649489 -0.261679746211 -0.095721533522 0.27770677954 -0.134092994034 0.382414236665 -0.101927586598 0.162927007303 -0.361665636301 0.134284246713 0.116530859261 0.188407436013 -0.339637622237 -0.0232559945434 -0.225974410772 0.10790079087 0.134830210358 0.108982582577 -0.394602350891 -0.168479062617 0.559828020632 -0.0503601878881 0.359968848526 -0.250057823956 0.20191809535 -0.306316748261 0.649184793234 -0.0878707095981 0.123185951263 0.0647145174444 0.0957356058061 0.416544035077 0.00306452219957 0.369316160679 -0.0839726477861 -0.246173173189 0.0343129839748 0.0960581675172 -0.281226724386 0.0509599081706 0.26469514519 0.0458842355292 -0.150570433587 0.0389383547008 -0.0268773077987 0.342655494809 -0.249519638717 -0.018168522045 -0.032869964838 -0.00480660051107 -0.126789303496 -0.0490232929587 -0.0771716744639 0.006745621562 0.0944377118722 -0.0639403685927 -0.0701661482453 0.130105020478 -0.0548769235611 -0.214166522026 -0.140346836299 0.102516356856 -0.0904091522098 0.320584464818 0.0506972167641 -0.0119750276208 0.312067613006 -0.0833540558815 0.233824465424 0.285539321601 -0.383739426732 0.0834196293727 -0.0130835238378 0.0248607248068 -0.265656575561 -0.0857157185674 0.43466386199 0.00312751531601 -0.0160326696932 -0.373416051269 0.0744283348322 0.134494163096 -0.552243888378 0.653659284115 0.0996268317103 0.12925587967 -0.466657161713 -0.30919675529 0.202443346381 -0.0827695643529 -0.144829079509 -0.0761328600347 -0.370004959404 -0.429802671075 -0.132288243971 0.229830797762 0.377704501152 -0.12402626453 -0.228138595819 -0.0250162445009 -0.138198349625 0.252617783844 0.216630142182 0.0889855697751 -0.0299608759815 0.0233436599374 0.0816389471292 -0.134139798582 0.383854076266 -0.0344586521387 -0.0490776002407 -0.265363752842 0.126304119825 -0.310421064496 0.0665522739291 0.0168631486595 0.146964691579 0.0539069827646 0.175918325782 0.260098993778 0.209717310965 -0.0440230425447 0.358652666211 0.00513319764286 0.154484756291 -0.1383792907 -0.0766084333882 -0.266845092177 0.353508964181 -0.186943896115 -0.0599916949868 -0.123037019745 -0.481008037925 -0.00683363550343 -0.091781117022 -0.0318108275533 0.214766632766 -0.437201850116 -0.00858711451292 0.263907924294 0.16253118962 0.278787732124 -0.0256700157188 0.047881251201 0.133046090603 0.0339770875871 -0.105524066836 -0.0607613499742 0.00454506278038 0.0647251056507 -0.00343426689506 0.213255301118 0.187050186098 -0.228905960917 -0.257448915392 0.0229197423905 0.199828371406 -0.142405509017 0.130800966508 -0.207004614174 0.181636316003 -0.179886162281 0.405744820833 0.161704845726 0.157910712063 -0.309269070625 -0.136658180505 0.155239202082 -0.268248461187 -0.319204226136 0.28736089915 -0.318589128554 0.11049805209 0.0389175862074 0.198394939303 0.231715526432 -0.213621026836 -0.446591340005 0.180060420185 -0.176352027804 0.278408490121 -0.130924835801 0.0223602068145 -0.163018543273 0.190052360296
están_invirtiendo 0.388203263283 -0.0320731624961 0.0399871617556 -0.128302827477 0.547018408775 0.123725391924 -0.588396415114 0.1513882 -0.180897273123 0.226025734097 0.133643195033 -0.105656817555 9.95926675387e-05 -0.148447573185 -0.218298614025 -0.161835975945 -0.226419758983 0.19328603521 0.106445225654 -0.040878854692 0.209661088884 0.112380341627 0.337213303894 -0.289630398154 -0.107450801879 -0.34140772 0.148970894516 0.287859767675 -0.372432217002 -0.0798949413002 -0.0359645257704 0.470091670752 0.15828592144 -0.155154898763 -0.0576631668955 0.011764228344 -0.118796233088 -0.176053151488 0.0668444484472 0.2057896927 0.0593982599676 0.0268349582329 0.188050784171 0.234790995717 -0.046498708427 -0.0369677743874 0.00938422977924 0.16590353474 0.291873017326 -0.206063248217 -0.00623059272766 -0.0203396549914 0.0415056403726 0.0929484814405 0.140832599252 0.319417506456 0.0826994366944 0.051010556519 0.429340481758 0.222712144256 -0.0397408753633 -0.174048863351 0.088166937232 -0.127409942448 0.0481982408091 -0.0647760108113 0.188943691552 0.0721907839179 0.0858521871269 0.0772094130516 0.0646248310804 0.126239474863 0.255513258278 0.0545966941863 0.0414355620742 0.0640405326849 0.107088301331 -0.0494664460421 0.275427341461 -0.193422112614 -0.0305266152136 0.0209844852798 0.194939263165 -0.246795475483 0.412057355046 -0.192597687244 0.119064159691 -0.199322929606 -0.0905068591237 -0.145192561671 0.119026463479 0.208804624155 0.100057017058 0.254156246781 -0.199013732374 -0.152157034725 0.111948641483 -0.642344564199 0.388576701283 0.0426717102528 0.194490294904 -0.302997395396 0.0805897526443 0.289917945862 -0.298213109374 -0.0528937592171 0.0494844149798 -0.1061476795 -0.130315244256 0.0947760352865 -0.196559984237 0.375659868121 0.0243006832898 0.0081810131669 0.0179141461849 -0.137670792639 -0.100042331964 0.333758100867 -0.0982101075351 0.118560753763 0.152982152998 0.0982145778835 -0.0343318022788 -0.200205942616 -0.0947109032422 -0.00416775047779 0.132716365159 0.00986467953771 -0.13088362664 0.428308025002 -0.104703083634 0.286053992808 -0.0542597398162 0.341404780746 0.418760597706 0.0767921302468 -0.230001151562 0.0271414332092 0.190103758126 0.172559883446 -0.221903409809 0.0677429251373 -0.420486330986 0.202716186643 -0.189286094159 -0.00376777350903 -0.0993428900838 -0.266292447224 -0.115272305906 0.0821071304381 0.0931699834764 -0.0758745837957 -0.0797554925084 -0.0357573777437 -0.0366241323063 0.0964043103158 0.0818348238245 0.207153476775 0.170338198543 -0.176524683833 -0.0619283132255 -0.0943175666034 0.177446823567 0.340450800955 -0.185615152121 0.236066460609 -0.0193095058203 0.273225128651 -0.0672480091453 -0.0914936885238 -0.192830156535 0.209800281562 -0.172629967332 0.285108949989 -0.516568809748 -0.114395227632 -0.112088475376 0.339123278856 -0.0798395201564 0.286181457341 -0.317667037249 0.0976120792329 -0.104331694543 -0.0573896206915 -0.22362717241 0.111283630133 -0.174080911791 -0.0247803665698 -0.0607786895707 0.00265557179227 0.106897847727 -0.377793818712 0.0403870344162 0.376613352448 -0.243506491184 -0.16321207583 -0.0790997892618 0.0741054341197 -0.0150746628642 0.0411726310849
pienso_yo_venir 0.322813997666 -0.0630255242189 0.187774817149 -0.105642313759 0.434054672718 0.05225011458 -0.184191316056 0.177275717258 0.0949133982261 0.537328948577 0.235596969724 -0.288043429454 0.149750925601 -0.0671401138728 0.211154833436 0.100124324361 0.106847452621 -0.0485242605209 -0.0275766824683 -0.13210479791 0.0276809682449 -0.072138744096 0.290981342395 -0.152899523576 -0.0919425301254 0.021086682876 0.415183236202 -0.193996841709 0.210879693429 -0.16153003027 0.0420994438852 0.164661607395 -0.0402617957443 -0.429501165946 0.0851176554958 0.231314013402 0.195381113328 0.336856380105 -0.058542817831 0.155718440811 -0.123503568893 0.113575227559 0.29058500131 0.167298197746 0.0580857822206 0.0514676108335 0.207958221436 -0.439762160182 0.434214711189 -0.218898420533 -0.205080246553 -0.203583180904 0.037745402505 -0.0605833729108 0.275968660911 0.206848975271 0.236596733332 -0.0526351730029 0.103087009241 -0.0108022578061 -0.0321386555831 -0.0983574042718 0.128527708352 -0.103261962533 0.150257008771 -0.0494181513786 0.0551204265406 -0.208520904183 0.202420006196 0.140002753275 -0.0144491096338 -0.379085620244 -0.0636061169207 0.0555822191139 -0.235255457461 0.0539809465408 0.100766152143 0.160392805934 -0.0154254079486 -0.127296669098 0.154661399623 0.079863106211 0.19217885534 -0.16119580095 0.424080133438 -0.200843900442 0.11637677749 -0.26861590147 -0.0132922654351 -0.0994004985938 0.0447868866225 0.243877197305 0.0573951415718 0.216130152345 -0.435168335835 -0.164412533243 0.0118307098746 -0.156642700235 0.439559529225 0.156156895061 0.1062252298 -0.140581483642 -0.0310126853486 0.374382203134 0.0819245353341 -0.0204290846984 0.0257581317176 -0.429197619359 -0.412720223268 -0.28901291887 0.160866181056 -0.0391602714856 0.275535682837 -0.355085507035 -0.145319816967 -0.263673956196 0.436926166217 0.291567340493 0.107178721577 0.106260186682 -0.192881489793 -0.0408565749725 0.0325484871864 0.0740306178729 0.0564346909523 0.0726777538657 -0.0554142716186 0.291273077329 -0.167275426288 0.121146522462 0.000865141240259 0.231308182081 -0.330868899822 0.11614121 0.203145962829 0.197184227407 0.242495656013 -0.144027294591 0.144285721083 0.0346210449934 -0.0468841691812 0.340173770984 -0.345801149805 0.187832375367 -0.361328519881 0.0812701061368 -0.43667879204 -0.383671412865 -0.401812265317 0.193930273255 0.302946756283 0.199776228517 -0.473839660486 0.0665790600081 -0.149666891744 -0.0149342511625 0.279569834471 0.156538842867 0.018531549722 -0.0470832927773 -0.574394077063 -0.041922437648 0.383400102456 0.0509707964957 -0.0681946575642 -0.193086899817 -0.28684469002 0.206877107422 -0.079588436832 -0.112530310173 -0.0967961152395 0.424239526192 -0.0462036430836 0.02602577582 -0.0530422528585 -0.158088808258 0.130146543185 0.180145499607 0.123498625122 0.0941031339268 -0.364420950413 0.0917789762219 0.197517417371 0.16339964668 -0.202374604841 -0.0389520550768 -0.517122328281 0.0672399072597 -0.0174772664905 -0.119866309067 0.136712481578 -0.0449642728393 -0.172253110756 0.165901685754 -0.01223428982 0.0546616812547 -0.105896691481 -0.166434278091 0.0950954230502 0.0998469293118
va_a_dar 0.300295780102 -0.00909126301606 -0.141934836283 0.096509873867 0.424489706755 0.118015189966 -0.120157714312 0.217894109587 0.00545702626308 0.3951301078 0.0514744520187 0.104871785889 -0.122356638312 -0.14066405346 -0.018540798376 -0.103260333339 0.0111279810468 0.191287480295 -0.0285802036524 -0.0621643960476 0.171769595395 -0.0713523179293 0.34622891744 -0.408839464188 -0.0452833051483 0.0104000866413 0.250320807099 -0.0791161848853 -0.0604530324539 -0.296114840855 -0.0884137737254 0.11389471218 0.0788655802608 -0.371078093847 -0.0458418925603 0.379198710124 -0.00756916900476 0.0928953389327 -0.239444702864 -0.0110890393456 -0.0864465981722 0.0892107089361 0.196489204963 -0.0336936662594 -0.11357785513 0.238825206955 0.173515955607 0.000128674010436 0.178117200732 -0.125757854432 -0.496717999379 -0.0204366942247 0.0678744390607 -0.0615822722514 -0.164622917771 0.171854103605 0.0138554843143 0.0371942718824 0.29404617846 -0.0174223532279 -0.0208934868375 -0.0933400491873 0.236612473925 -0.0634895910819 0.0909080629547 -0.183081035813 -0.163972047468 -0.0108738020062 -0.0217720841368 0.0789253196369 -0.0146918644508 -0.292544667919 0.259978140394 -0.114343250791 -0.0241674582163 -0.132502468303 -0.0683547879259 0.031699180603 0.143084218105 -0.17940547814 -0.103258745124 0.0558516482512 -0.00675510366758 -0.205164890736 0.198374201854 -0.185444866618 0.173507664353 -0.073216766119 0.114485544463 -0.171202500661 0.353967438142 0.136370077729 0.211207533876 0.0859755488733 -0.447564343611 -0.108245781312 0.185774981976 -0.325254629056 0.186978509029 0.277027994394 0.282482902209 -0.383641863863 -0.142868743589 0.0939774637421 -0.0665247365832 -0.119954511523 0.130554338296 -0.34159976244 -0.252928139021 0.10548466444 0.136432275486 0.416113249958 -0.224561830362 -0.0600268008808 -0.138217501342 -0.144317323963 0.148950561881 0.186079678436 -0.0419902602832 -0.111106355985 0.100514600674 0.00928385804097 0.0213329604206 -0.0368958084534 -0.0197442273299 0.271145552397 -0.064503647387 0.242590601246 0.0120565975085 -0.0227117364605 -0.0715468736986 -0.0245720837265 -0.189911425114 0.293949887156 0.206023854514 0.143167587618 -0.0818826556206 -0.0127913691103 0.133500501513 0.165831826627 -0.0240370283524 0.207408249378 -0.16995788614 0.458037863175 -0.226570030053 -0.00815353045861 -0.223595768213 -0.168015020589 -0.14830292513 0.152239456773 0.122878705462 0.00512220958869 -0.156430671612 0.0767567058404 0.114033517738 0.370323896408 0.20776806275 -0.0399779714644 0.0684162105123 0.102073813478 -0.0147964917123 -0.176748332878 0.0158201564724 0.124326482415 -0.00560288069149 -0.0163381844759 -0.0800881907344 0.192583655318 -0.105456466476 -0.0833649734656 -0.137453690171 0.251499161124 -0.0106623743971 0.118510906895 -0.255840296547 0.019832106928 -0.160054848219 0.320141017437 -0.00407487029831 0.284107205768 -0.182827353477 0.303178697824 0.100114919245 0.0182697921991 -0.22660253942 0.194007552229 -0.217236998181 -0.133948359638 0.208673203985 -0.0437740931908 -0.0955879688263 -0.0330093776186 0.0607244806985 0.370919370092 -0.256558299065 -0.117575881382 -0.0703804865479 0.11263016363 -0.117471816639 0.211489140987
puedo_ir 0.34040967375 0.126281168312 0.0488844588399 -0.102466411889 0.409427046776 -0.0120253190398 -0.378638789058 0.0253977701068 0.144694201648 0.488806158304 0.221061185002 -0.0401305109262 0.160835653543 -0.250429987907 0.155485264957 0.159227915108 0.135156977922 0.197355508804 0.0526568368077 -0.185339269228 0.0506487586536 -0.24112714082 0.308575212955 -0.229458503425 -0.0322919264436 -0.0647175610065 0.575472325087 -0.237884517759 0.0334438867867 -0.200858224183 -0.12366409786 0.249855279922 0.11095636338 -0.407700076699 -0.132806918584 0.345894753933 -0.0662585943937 0.100672610104 -0.188743971288 0.238131165504 -0.0764216911048 0.26310569793 0.226400136948 0.13107451424 -0.126359507442 0.250386796892 0.298334725201 -0.277747035027 0.287543714046 -0.158779745921 -0.223684087396 -0.0319666340947 0.135017253458 -0.0587567389011 0.0962386298925 0.0663918852806 0.255658820271 0.122421581298 0.280479554087 -0.131867593154 0.0670820679516 -0.218793928623 0.278255969286 0.0584444440901 0.0939935222268 -0.138791233301 -0.17520262301 -0.162172719836 0.0569385662675 0.110932385549 0.0540245138109 -0.23198647052 0.0197473615408 0.062084197998 -0.0949387606233 0.0995123684406 0.0814040824771 0.113105971366 -0.169064898044 -0.369873389602 0.00529067125171 -0.0418701246381 -0.0514617934823 -0.21195326373 0.290344275534 -0.036455694586 0.118140079081 -0.21188865602 -0.0170195717365 -0.0966452658176 0.227199852467 0.232834756374 0.133733056486 0.188844684511 -0.602274358273 -0.0528888739645 0.0696273185313 -0.332354895771 0.330953814089 0.438876837492 0.177079834044 -0.416308410466 -0.223332263529 0.342250883579 0.0554505325854 -0.0915990769863 0.267399385571 -0.230980269611 -0.177791621536 -0.0437999293208 0.197217345238 0.150916928425 0.039685934782 -0.365490466356 -0.29952070117 -0.257902875543 0.371022447944 0.187826856971 0.39254335314 0.0239218212664 -0.177373751998 -0.0808491483331 0.000591479241848 0.108926437795 0.0539120286703 0.0231199413538 0.241192884743 0.43261423707 0.179210737348 0.279407773167 0.239012032747 -0.198263287544 -0.170604966581 0.0939875487238 0.312044918537 0.251842580736 0.129962597042 -0.0566263373476 0.19355991669 -0.0739633254707 0.20038703084 0.305953681469 -0.235566906631 0.374086201191 -0.36973413825 0.0516143068671 -0.429523766041 -0.427967265248 -0.250540673733 0.116519502364 0.0679835565388 0.116961658001 -0.446951895952 0.057617767714 0.0628953352571 0.181686073542 0.283982247114 0.00196547806263 0.0383955743164 -0.134396925569 -0.365928947926 -0.0263338983059 0.257852613926 0.224338434637 -0.0184244848788 -0.281986102462 -0.158347316086 0.523123845458 -0.0011727437377 -0.302886590362 -0.232292629778 0.472929984331 -0.110387355089 0.116954464465 -0.0680466815829 -0.270664896816 -0.0724650099874 0.364211350679 0.204639740288 0.41661952436 -0.156798820943 0.248618900776 0.222930587828 0.0648008137941 -0.14842659235 0.118953205645 -0.446997009218 -0.0646861493587 -0.124409899116 0.186619766057 0.107424221933 -0.10876519978 -0.238850921392 0.27544542402 -0.169495796319 -0.00882981717587 -0.329323321581 0.175873853266 -0.0424331296235 0.166778713465
ando_cambiando 0.258916430175 -0.24723579362 -0.0453830417246 0.289652734995 0.654349923134 0.145826846361 -0.561033964157 -0.0141129344702 -0.279986767098 0.523213326931 0.0701877400279 -0.0731770098209 -0.0307887345552 -0.12706611678 -0.215914092958 -0.0325768366456 0.047537766397 0.213984109461 0.314289227128 -0.205056153238 0.401098504663 -0.0447260290384 0.117699841037 -0.163326460868 0.27894667536 0.132694507018 -0.0649227078538 0.098344989121 -0.0444646887481 -0.256404206157 -0.0828510262072 0.327564626932 -0.0701589165255 -0.349726237357 0.125652950257 0.130215393379 -0.059156245552 -0.155896812677 -0.156386593357 0.235932908952 -0.193832442164 0.470179863274 0.0500336587429 0.35469443351 -0.0384135171771 -0.0426882002503 0.390997543931 -0.17030531913 0.0945435017347 -0.0968139320612 -0.203678877093 0.15045998618 0.279145181179 -0.214075054973 0.0465292111039 0.389657646418 0.0735270082951 -0.0471390038729 0.465204492211 -0.185699731112 0.0535807088017 -0.067120295018 0.436613857746 -0.16354964301 0.301373109221 -0.0832298221067 -0.217636495829 -0.10986530222 0.163874622434 0.181446507573 -0.39222882688 -0.406388856471 0.296152427793 0.224164905027 0.122625079006 0.0610760394484 0.0534247234464 0.240243919194 0.233952671289 -0.426755268127 -0.0102914944291 0.0664287954569 0.143217327073 -0.0410735495389 0.0537343025208 0.131893534213 0.126639243215 -0.0268664732575 -0.288438663818 0.129729505628 0.129621163011 0.0574633330107 -0.000935722142458 0.0367280468345 -0.102065194398 -0.098264425993 0.0370412394404 -0.498269498348 0.529890716076 -0.119916863739 0.605205923319 -0.471533380449 -0.193369887769 0.0671281013638 0.0697571383789 -0.415191009641 0.276837415993 -0.342747546732 -0.508882001042 0.0510494560003 0.207204341888 0.0405649393797 0.067148078233 -0.319753268035 -0.198008496314 0.0696067474782 -0.0393869811669 0.227700717747 -0.0142070986331 0.184659436345 0.00376159697771 0.427297070622 -0.326889246702 -0.131836248562 0.165891557932 0.158831792884 -0.330065071583 0.431358188391 -0.100982581265 0.00259928032756 -0.319776900113 0.0686788288876 0.344293281436 0.483842357993 0.0507351756096 0.0572204515338 -0.256614945829 0.0570478849113 -0.0897366665304 0.210285589099 -0.257216989994 0.387464478612 -0.180143468082 0.321912646294 -0.309075519443 -0.162261322141 -0.130315735936 -0.316992387176 -0.420883178711 0.0535736083984 0.245281770825 0.0073438603431 -0.509416490793 0.0768880583346 -0.0787630397826 0.388783276081 0.125893127173 0.0370558798313 0.310408353806 0.205292776227 0.0672423392534 0.321576848626 -0.0848482269794 0.204997062683 -0.116463523358 -0.129813450389 -0.0818764057476 0.271949589252 -0.262446925044 -0.332315221429 -0.127418749034 0.0392261417583 0.0946649909019 0.332866750658 -0.352880656719 -0.100659772754 -0.139226686209 0.495695829391 0.201961547136 0.400071889162 -0.160860244185 0.19858661294 -0.264200784266 -0.117117911577 -0.275420513004 0.271603167057 0.032055079937 0.0917591042817 0.0160416215658 0.178165189922 0.0343953724951 -0.141621045768 -0.11219252646 0.137828867882 -0.504209235311 -0.0536686382256 -0.0764711424708 -0.0971957743168 -0.230142146349 0.0065944083035
están_cobrando 0.0817408189178 0.00184014439583 -0.0446819886565 -0.0196395926178 0.538812875748 0.00191646814346 -0.535401269794 0.0488278120756 0.0018616579473 0.327337041497 -0.123439721763 -0.0409929733723 -0.00760768313194 -0.222341425717 -0.270856276155 -0.163427166641 -0.309243083 0.195886954665 0.0668109979015 -0.0453238263726 0.322976991534 0.0525248497725 0.438360579312 -0.345279544592 0.0269412510097 -0.24700698629 0.175294421613 0.216699741781 -0.473857924342 -0.15258814767 0.00378409365658 0.576821789145 0.269707538188 -0.368338063359 -0.105277070776 0.126580536366 -0.0958675430156 -0.113254658878 -0.0552612394094 0.0352046079934 0.2010602355 0.0870851026848 -0.0178731307387 0.174898244441 -0.161831174046 -0.0466012004763 0.209895767272 0.146784849465 0.0850325915962 -0.0863029174507 -0.160442061722 -0.10232048505 0.0887560267001 0.14715930447 0.0944391749799 0.300470933318 0.0244928561151 0.147724083741 0.225216679275 0.253583423793 -0.142800606787 -0.00495561212301 0.0909175798297 -0.260720409453 -0.142564483918 -0.146227911115 0.0758371092379 0.0368098542094 0.113389890641 0.102608272806 0.0793915018439 -0.0186360999942 0.239508129656 0.19755497016 0.0429099909961 0.0748883768683 0.0773705728352 -0.116025060415 0.277161002159 -0.149619254284 -0.134972508531 0.206226434093 0.236086569726 -0.156844362617 0.292362383567 -0.264724366367 0.0375373587012 -0.153707703575 0.114112280309 -0.17477699928 0.00450332462788 0.303373934701 -0.00809144601226 0.160084935836 -0.23336439766 -0.0968716442585 0.0428926870227 -0.503753736615 0.407796621323 0.0374709069729 0.16395862028 -0.372226208448 0.00687105208635 0.318200409412 -0.145771712065 -0.0906018665992 0.0411020098254 -0.0551184006035 -0.113014109491 -0.0268064141273 -0.108050487936 0.624181091785 0.0109734199941 -0.14627763629 0.178390950517 -0.197101101279 0.0259193107486 0.319515749812 -0.183832446113 0.26763966307 0.00623819231987 -0.106283374131 0.0489189960063 -0.107586592436 -0.261564323679 -0.0810473412275 -0.0418874770403 -0.0233463188633 -0.0779774039984 0.251834496856 -0.137118771672 0.094004496932 -0.0325218928047 0.499228924513 0.358511507511 0.11499620229 -0.151559993625 0.0324422605336 0.0638045696542 0.113614607602 -0.18730051443 0.0781729333103 -0.370968513191 0.140874318779 -0.250872142613 -0.0605435371399 -0.0498751178384 -0.323855618015 -0.172441445291 -0.0504650883377 0.0632729455829 -0.124206898734 -0.0557310292497 0.02082567662 0.0640462537995 -0.10439023003 0.16736766696 0.205909118056 0.229877479374 -0.0539370849729 -0.0525407250971 -0.0374212256866 0.118298135698 0.0955377896316 -0.200487062335 0.222168013453 0.00347800180316 0.306517764926 0.0182641372085 -0.0318413823843 -0.138798322529 0.173701837659 -0.220808312297 0.232786337845 -0.442640133202 0.0399578098441 -0.0318176543806 0.25295765698 -0.0311833713204 0.328474864364 -0.294064044952 0.219894666225 -0.187009878457 -0.0942872725427 -0.168002098799 0.293291114271 -0.261200904846 -0.146847870201 -0.148038819432 -0.0418424042873 0.170080471784 -0.365316197276 0.109209604561 0.438053034246 -0.476392865181 -0.199388667941 -0.00281667336822 0.171138972044 -0.0613962709904 0.197719573975
tienen_que_entregar 0.234405855338 0.072576140364 0.177743261059 -0.0683557341496 0.268017778794 0.0383877229566 -0.159816868603 0.0749826985411 0.0926492077609 0.301755105456 -0.0260897452633 -0.0885185711086 -0.02161771385 -0.192980910341 -0.0317135653459 -0.0843554486831 0.00200392057498 0.203741545479 0.070861796538 0.0736161903478 0.189171587427 -0.0662055223559 0.444364661972 -0.296096002062 -0.0630429200828 -0.149873790642 0.135387316346 0.0647820308805 -0.169716887176 -0.11311681817 0.173907794058 0.208576641977 0.0953775197268 -0.107383125772 -0.101158673565 0.228088438511 -0.101505144189 0.223660017053 -0.189726039767 -0.130753683547 -0.0186098921113 0.00786716242631 0.0797989529868 0.146905114253 0.0292721415559 0.244140297174 0.0091575756669 -0.135457554211 0.261429041624 -0.0943469293416 -0.220117144287 -0.0551697909832 0.0989303144937 -0.102648465584 -0.0864161389569 0.118267985061 -0.132852124671 0.261079996824 0.340681508183 0.154051659008 -0.0210368148983 -0.0440472414096 0.33845102787 -0.168776026616 -0.0955418050289 -0.0968076139688 0.113449605803 -0.153255759428 0.000288389623165 -0.0170341866712 0.0843480328719 -0.148826124767 0.161384894513 -0.00993956625462 -0.00764965514342 0.0636872242515 0.0192736402775 0.164047089405 0.367628216743 -0.0432194843888 -0.00985045234362 0.0142126431068 -4.31165099144e-05 -0.283365368843 0.172184944153 -0.326365808646 0.0262912785014 -0.173162212285 -0.0563342086971 -0.214712070922 0.0821607684096 0.178154387356 0.194924138486 -0.0983970162148 -0.505903373162 -0.124485934153 0.213327956696 -0.318497315049 0.25832635661 0.274207944671 0.181407233079 -0.308589667082 -0.000193192623556 0.213285709421 -0.0209791709979 -0.238513340553 0.249500593791 -0.258390734593 -0.196562976266 0.0118962439398 0.103775819143 0.15151587377 -0.113392313321 0.0194303865234 0.028079542021 -0.073463127017 0.333169440428 0.288565824429 -0.025329501989 -0.11548364535 0.131251182407 -0.0288266545782 -0.145477560659 -0.118187770558 -0.0574183942129 0.146154063754 -0.149925082922 0.00131481078764 -0.101972056553 0.0861211152126 -0.0897552610065 0.0635094083846 -0.0762805721412 0.175204957525 0.157343292609 0.157602472852 -0.0495355675618 0.0613343218962 -0.0482804880788 0.017184264337 -0.0474676440159 0.0896792660157 -0.359478414059 0.155467778444 -0.286905966699 0.00648107628028 -0.112579882145 -0.388326853514 -0.034756201009 0.395716180404 -0.0241461694241 -0.0206135846674 -0.0808337467412 0.0854845841726 0.155864983797 0.128643942376 0.158759484688 0.0348340173562 0.158746490876 0.110695815024 -0.0618585906923 -0.159643240273 -0.00499077141285 -0.043204896152 0.0126306153834 0.109992660582 -0.0384879261255 0.224242145816 -0.155045486987 -0.0991490433613 -0.208834007382 0.254419850806 -0.201102469737 0.256275707235 -0.332764749726 0.0557585489005 -0.0620297671606 0.0414993713299 -0.0482107798258 0.0497474099199 -0.146644663066 0.031679711615 -0.188029650599 -0.00101745004455 -0.127033840865 0.332304775715 -0.330218091607 -0.0891955296199 0.112051498145 0.138952149699 0.131502448271 -0.214220692714 -0.0722301878656 0.0192378920813 -0.324798375368 -0.208149517576 -0.0474354947607 0.251893246546 -0.182259742636 0.159886601071
puedo_decir 0.192999586463 0.185181092471 0.0235831364989 -0.381870001554 0.327907372266 -0.0622761193663 -0.281051017344 -0.00222725048661 0.0683286916465 0.285290107131 0.215552702546 -0.303538426757 0.194867666811 -0.176100064069 0.138120746647 -0.0555072799325 0.206805650145 0.126171458513 0.114797338843 -0.0922846272588 0.1683126227 -0.140215119813 0.454800993204 -0.343822874129 0.0753800757229 -0.123583704233 0.403008803725 -0.151178993285 -0.0942809283733 -0.117126893252 -0.014124372974 0.193969853222 -0.166300132871 -0.318031013012 -0.0530424630269 0.231643341482 0.0955312550068 0.222360804677 -0.181087806821 0.229981530458 -0.0989731643349 0.0933836959302 0.286009818316 0.176193580031 -0.123300723732 0.195101477206 0.260001432151 -0.365518085659 0.299121327698 -0.131596541032 -0.262991413474 -0.282982751727 0.278849795461 -0.128459058702 0.224868260324 0.158714300953 0.154502205551 -0.015912193805 0.070842910558 -0.0216139149852 0.137411786243 -0.105126604438 0.246449243277 -0.151703316718 -0.0662818197161 -0.00809280574322 -0.107320323586 -0.191259548068 0.00830017775297 -0.0515971723944 0.136756818742 -0.317497037351 -0.164016272873 -0.00855977833271 -0.144455581903 0.0425056726672 0.0624160803854 0.0260660611093 0.0874123908579 -0.141691414639 -0.00145487766713 -0.0551595427096 -0.0548043847084 -0.149896364659 0.200144352391 -0.15716515854 -0.00554470159113 -0.187129154801 0.14897227101 -0.0678155124187 0.229723274708 0.199286803603 0.193719133735 0.147833265364 -0.493287205696 -0.0582371763885 0.128728877753 -0.173632189631 0.0753403119743 0.341959670186 0.215574361384 -0.224118731916 -0.0639083385468 0.392680883408 0.0236711166799 -0.133706271648 0.203075744212 -0.327365934849 -0.175030495971 -0.18547731638 0.148880846798 0.118331173435 0.241786258295 -0.357148222625 -0.162949198857 -0.164604431018 0.582654908299 0.209205962718 0.372842449695 -0.0663964357227 -0.214960539714 0.0127738192677 -0.249516554177 0.0471957344562 0.218228938058 -0.0150278881192 0.0527560114861 0.112012408674 0.10104874149 0.347389444709 0.0747923441231 -0.0604699365795 -0.336612656713 0.20585999079 0.163640879095 0.0884340703487 0.0767725929618 0.0369349729735 0.0421492615715 0.119359865785 0.144072595984 0.206919126213 -0.600953549147 0.289940908551 -0.466466590762 -0.0679038083181 -0.229918330908 -0.417010471225 -0.291452512145 0.17921604868 -0.015226945281 0.184056721628 -0.395818918943 0.114673263393 0.0218486636877 0.114302799106 0.211642172188 0.281729102135 0.0933945905417 -0.0620226543397 -0.480690032244 0.119689084589 0.322384379804 0.0895186120179 -0.0850914660841 -0.262532692403 -0.118910703808 0.50931956619 -0.142951941118 -0.14627572149 -0.269911639392 0.503053501248 0.0457640327513 0.0628666561097 -0.206225983799 -0.343343630433 0.104949720204 0.181902430952 -0.0290574133396 0.193563252687 -0.163999374956 0.0978659489192 0.128159318119 0.223856307566 -0.143958359957 0.235874257982 -0.478839278221 0.130697287619 0.0467330738902 0.0548083940521 0.138264141977 0.0245784372091 -0.193600669503 0.0187457799911 -0.00973667856306 -0.0407327264547 -0.256278894842 -0.0724505484104 0.0441733449697 0.103306474164
empiezan_a_hacer 0.280579234163 0.00412739813328 -0.00851366420587 0.0425360500813 0.31322551767 0.152197351058 -0.168877343958 0.221896208823 -0.0838613442223 0.342321159939 0.0956044817964 0.00243497888247 -0.00853657970826 -0.145508659072 0.107664008935 -0.122399998208 0.0182053521276 0.311234782139 0.184924369057 -0.00742678157985 0.239388244847 0.0109302904457 0.324299931526 -0.3848092556 -0.0115735046566 -0.0118488669395 0.309830322862 -0.0738698566953 -0.0808125634988 -0.246826627602 -0.0283053492506 0.00794119946659 0.10753574005 -0.150211041793 -0.0307010225952 0.405339191357 0.0219929243128 0.11699423939 -0.0488710850477 -0.0325260783235 -0.0289111584425 0.151612336437 0.219171185046 -0.173378469422 -0.12805569917 0.119876017173 0.210084920128 -0.036741523693 0.167869529376 -0.10819987456 -0.289245756964 -0.0856610213717 -0.00473040093978 -0.0451830547924 -0.248054645956 0.0928554584583 -0.0531616297861 -0.0531748427699 0.397885312637 0.127589441836 0.141362400105 -0.256362721324 0.251299157739 -0.0232141216596 -0.109939344538 -0.114040533702 -0.0692262351513 0.0254589654505 0.0498379692435 -0.0971147883683 0.0201818719506 -0.0989127109448 0.306933959325 -0.10635976245 -0.0269033014774 -0.221058170001 -0.00701278696458 0.0566519722342 0.0547591596842 -0.0769780824582 -0.010540381074 -0.0255079412212 0.00770672783256 -0.0457702639202 0.215991944075 -0.320090239247 0.252593090137 -0.172505741318 0.11906076471 -0.0329321672519 0.542270759741 0.188715239366 0.156407485406 0.111398530503 -0.367197602987 -0.306670775016 0.297880485654 -0.230907157063 0.115752086043 0.290900990367 0.34358694156 -0.236465538541 -0.18451778094 0.213331180314 -0.130265797178 -0.136957371607 0.179854035378 -0.210347856085 -0.0932952687144 -0.0318254688755 0.0155880578483 0.339703286688 0.0649718816082 -0.0558847139279 -0.237719915807 -0.239665175478 0.252130885919 0.242838303248 0.0805116593838 -0.0441195641955 0.166139215231 0.0476030036807 0.0189306810498 -0.0989715072016 0.199888008336 0.239432170987 -0.0109446172913 0.0951425195866 0.00776733923703 0.132838473966 -0.240566169222 -0.00807920098305 -0.173729768644 0.268205399935 0.0931919353704 0.0535210842888 0.0650727028648 0.0495224446058 -0.109669803331 0.0139911423127 0.0542524307966 0.33223703752 -0.186030139526 0.244369169076 -0.170295715332 -0.110502316616 -0.206058283647 -0.263024779347 -0.0275280891607 0.240734451761 0.151853084564 0.0280318272611 -0.257034480572 0.188208876799 0.0264831905564 0.0519184606771 0.0162884717186 0.0265370073418 0.0866332824032 0.0615733520438 -0.0911959816391 -0.245563638707 0.0690458814303 0.146360879143 0.00372782349586 0.018634116898 -0.123688079417 0.17975645264 -0.0317739148935 0.0240107898911 -0.0789236774047 0.231717621287 -0.027617794772 0.174009459714 -0.448589245478 0.0408077090979 -0.132515512407 0.164579647283 0.0894350148737 0.449383415282 -0.202287862698 0.267398099105 0.111468744775 -0.0364011898637 -0.149834372103 0.285298610727 -0.377364218235 -0.0229810302456 0.0585037308435 0.196222826838 0.0963123440742 -0.104764173428 -0.132021149 0.317298422257 -0.0996404153605 -0.182086348534 -0.223262839019 0.255213449399 -0.136973756055 0.309853146474
tengo_que_salir 0.241081729531 0.0880578634654 0.0846509387096 -0.0356340395908 0.40444680055 0.0453811309611 -0.221429000298 0.0046012334836 0.0613152732452 0.426118776202 0.0888217637936 -0.0997399153809 0.0920623391867 -0.210974261165 0.125674559269 0.0393851300081 0.159863387545 0.115853277345 0.147669225931 -0.0556377548104 -0.00247686107953 -0.303006549831 0.280827070276 -0.286714439591 0.0313231290008 -0.0824972558767 0.273255502184 -0.129372514396 0.0533576880892 -0.268118436138 0.135191173603 0.0861279343953 0.00316989670197 -0.241049504218 -0.101522384793 0.320786004265 -0.0914349009593 0.19828417711 -0.165861432751 0.00295780723294 0.0166557746318 0.199929436048 0.025761363407 0.118712507188 -0.0019155330956 0.0920382787784 0.225463678439 -0.229056686163 0.308160136143 -0.0360723348955 -0.235197409987 -0.120344534516 0.0854558652888 -0.018302924931 0.0870238991144 0.0717648987969 0.286595632633 -0.0266733169556 0.0668876785785 0.0304699167609 -0.0311514213681 0.0173952924088 0.165978003293 -8.92393290997e-05 0.0511127971113 -0.116602296631 -0.0754082898299 -0.224587937196 0.157025692984 0.0928655502697 0.0043455461661 -0.162871892254 -0.0142135725667 -0.0896413624287 0.033880914251 0.0643300637603 0.0883898567408 0.15128655235 0.050463569661 -0.097393622001 0.00186997807274 0.0488400869071 0.015395966048 -0.179254362981 0.257493883371 -0.213169256846 0.032567674915 -0.273494477073 -0.10583482186 -0.0542323015009 0.178361455599 0.205103439589 0.0691466424614 0.0236207672084 -0.468877067169 -0.00257845968008 -0.0630153939128 -0.198190167546 0.265388329824 0.215247799953 0.162282307632 -0.33872452875 -0.0709868421157 0.244697029392 0.136010778447 -0.160231021543 0.124881989012 -0.311919783552 -0.282163761556 -0.1110133032 0.105113781989 0.109044484794 0.0462578826894 -0.1627751713 -0.120373444011 -0.0854424337546 0.384557838241 0.359486897786 0.166172602214 -0.00296528016527 -0.0861776967843 -0.0256931440284 -0.0249728262424 0.153640646177 0.0785131646941 0.0145451724529 -0.0327310164769 0.173494411632 0.00552764969567 0.0560964858159 0.00411213445477 0.0542336429159 -0.131299204503 0.108878203668 0.280351762349 0.108856173853 0.0366410712401 0.110079713166 0.0781812214603 0.0256014044086 0.0821290289362 0.120105168472 -0.273508759836 0.274965569377 -0.2949180305 0.00247145692507 -0.361876673996 -0.398369093736 -0.146485179663 0.12079000473 -0.0259855265419 -0.046522003909 -0.332033952077 0.224677999814 0.038151623526 0.130601237218 0.375820462902 0.0511592874924 0.0997284976766 0.109174759127 -0.357377439737 -0.133521911999 0.270510867238 0.00338481118282 -0.120592544476 -0.254830561578 -0.00613872210185 0.235821885367 0.0105635772149 -0.156564489007 -0.119236215949 0.28716245542 -0.121778236081 0.227842122316 -0.0873541484276 -0.0137727577239 0.0197647282233 0.278912377854 0.206800331672 0.047671348167 -0.138326616337 0.16941778486 0.0699920617044 0.0386982957522 -0.111469075084 0.177333196004 -0.45967845122 0.0436582714319 0.0726285253962 0.143392987239 0.134857869086 -0.0888775289059 -0.294667672676 0.12594197318 -0.209845703095 -0.164127932241 -0.179192253699 0.0412631376336 -0.0711499097136 0.224974597494
va_a_costar 0.28648780783 0.116671005885 -0.0926974763473 0.0536265422901 0.417204668125 0.0704118112723 -0.229993463183 0.0622253293792 -0.0232703170429 0.201715278129 -0.00414908925692 -0.114893713345 -0.0350914808611 -0.0321070713301 -0.0626158689459 -0.0297741740942 0.0424342130621 0.216858084003 0.00522721062104 -0.23922205468 0.142579965293 0.00641010204951 0.213110973438 -0.517292499542 -0.112039726228 0.0658431649208 0.332394724091 0.00867741679152 -0.18823885421 -0.30970713372 -0.0546497814357 0.207254737616 0.189770437777 -0.340782503287 -0.286221454541 0.244566589594 0.00324056049188 0.149512941639 -0.167838657896 -0.0042474741737 -0.0623550117016 0.264507914583 0.248338162899 -0.017197628816 -0.0791020157437 0.0827525183558 0.205461353064 0.00621051465472 0.253560945392 -0.128629387667 -0.514847497145 -0.0278138866027 0.0469769562284 -0.0291692303338 -0.132929468217 0.0140331039826 0.0721917053064 -0.0802087783813 0.219782794515 0.0963736002644 0.0540989364187 -0.287798881531 0.254991119107 -0.0563311328491 0.0907445425789 -0.0985610187054 -0.12930701673 0.120136685669 0.00369653354088 0.0213017246375 -0.0116231565674 -0.183784157038 0.161944819614 -0.0477086802324 -0.101199217141 -0.0130363404751 0.0244020720323 -0.0296792176863 0.0290928085645 -0.0756401692828 -0.104104810084 -0.0608978668849 -0.0537412439783 -0.280344288796 0.305007035534 -0.247159346938 0.189242765307 -0.302191878359 0.206821545959 -0.086088269949 0.356796100736 0.161077256004 0.21153499186 -0.00711074968179 -0.475675821304 -0.149192581574 0.0602235694726 -0.2320527186 0.202812030911 0.167365254213 0.222355733315 -0.266334742308 -0.121815770864 0.183200187981 -0.169652156532 -0.404769803087 0.130689476927 -0.461395939191 -0.303958530227 0.0422387011349 0.0348074122642 0.517714947462 -0.0693953484297 0.0618153934677 -0.242827864985 -0.0979137346148 0.14978188773 0.158337103824 0.095406288902 -0.0565709869067 -0.00610191871723 0.0538561517994 -0.0762308215102 -0.0820892130335 0.0674130643408 0.164382240425 0.0679636361698 0.164282499968 0.0650597739344 0.0444644168019 -0.147421271851 -0.0986616859833 -0.161691726496 0.325286870201 0.222101631264 0.116496476034 -0.0754039610426 -0.0199555543562 0.100832452377 0.24691089491 0.134388412038 0.157527986914 -0.111324888964 0.50698363781 -0.151096483072 0.0115151529511 -0.243422269821 -0.25909494857 -0.0693203552316 0.0354330129921 0.232891229292 -0.0837056363622 -0.157076795896 0.138729463021 0.175191509227 0.254579031219 0.11310210824 -0.0187422796153 0.12868955483 -0.110322115322 -0.0914283966025 -0.119510943691 0.0908790801962 0.131132314603 -0.0571109255155 -0.0108499353131 -0.297785359124 0.339756096403 -0.090491125981 -0.116199173033 -0.28000600636 -0.0252682020267 -0.0656681184967 0.195066432158 -0.199485535423 0.0137625336647 -0.161844979816 0.380096912384 -0.161402951926 0.137439933916 -0.103919929049 0.268536816041 0.0687365581592 0.160795509815 -0.111465188364 0.213172735336 -0.0948506239802 -0.285661314925 0.0647672812144 0.0403942490617 0.0304549485445 -0.0786111479004 -0.0126910582185 0.449637571971 -0.380868464708 -0.250501106183 -0.0365367494524 0.182101642092 -0.00291544944048 0.206971878807
puede_aguantar 0.2442464903 0.0531282909214 0.179336823523 -0.0267014978454 0.379150509834 -0.277315683663 -0.0530407926999 0.0880238246173 -0.0527874212712 0.251689232886 0.0963170044124 -0.23529427126 -0.226143270731 -0.1615068838 -0.0797012168914 -0.201874777675 0.0770426765084 0.0697363838553 0.380496203899 0.0247734598815 0.139040920883 -0.0636883508414 0.359797589481 -0.145812404342 0.159019201994 0.0241506909952 0.521544873714 0.00936829298735 0.187688425183 -0.278313081712 -0.00437704846263 0.165258724242 0.0766919218004 0.128828462213 -0.163025151938 0.103464175016 0.20704619959 0.0301204174757 -0.202101834118 0.161682102829 -0.066702807555 0.0607609562576 0.187402918935 0.166773654521 -0.410064071417 0.292554736137 0.132643993944 -0.242748145014 0.295938953757 0.00244066864252 -0.407317221165 0.0509437285364 0.323945060372 -0.060887189582 -0.18231703341 0.0401359309908 0.0163062363863 0.209145516157 0.18833694607 0.0914745405316 0.0104897320271 -0.0502190440893 0.528887882829 0.0981627181172 0.0857732407749 -0.0599912917241 0.179757591337 -0.0378543669358 -0.0969304423779 -0.0200960282236 0.464108914137 -0.197509979829 -0.0240207910538 0.131813343614 -0.0914947278798 0.221647623926 0.0442404330242 0.156805228442 -0.175086528063 -0.0611431831494 -0.0916083976626 -0.258106924593 -0.0766358524561 -0.0873015383258 0.288578815758 -0.300298333168 0.15273977071 -0.205296951346 0.252536780201 0.0561975240707 0.476460188627 0.480154447258 0.258810184896 0.0698845982552 -0.420626342297 0.186123639345 0.217661835253 -0.0310838371515 -0.125813622028 0.367908790708 0.0345203727484 -0.351166732609 -0.0190084073693 0.452639125288 -0.0834444966167 -0.312340140343 0.424813702703 -0.199702233076 -0.256016172469 -0.0786942280829 0.206825302914 0.272661786526 0.178630519658 -0.102771189995 -0.322233512998 -0.186998728663 0.483213812113 0.118380287662 0.175804574043 -0.130893860012 0.183160014451 -0.145167777315 -0.0248994715512 0.0811213217676 0.145907171071 0.0742577423662 0.173918299377 -0.0207639634609 0.0562730170786 0.165488053113 0.11931428872 0.0534577071667 -0.321501269937 0.132747281343 0.351283131167 -0.0333989262581 0.0998968370259 0.080371029675 -0.0204241983593 -0.171800915152 0.155400759773 0.274752482772 -0.370348505676 0.353577919304 -0.110093995929 0.0167223403696 -0.126943683252 -0.326936930418 -0.187683429569 0.502842366695 -0.0553235858679 -0.0888052545488 -0.222613856196 -0.0613889098167 0.0773313120008 0.0174076929688 0.141669297591 0.219156712294 0.153281226754 -0.0554704852402 -0.395007904619 -0.0963024683297 0.0638939442579 0.189441155642 0.106526903808 -0.185475319624 -0.114487126004 0.1971478872 -0.046765267849 -0.0160243082792 -0.155771600083 0.201329000294 -0.171813271008 0.127338569611 -0.376116067171 -0.280479319394 -0.00237506628036 0.389087244868 -0.0952813513577 0.316818222404 -0.270240329206 0.156818189658 -0.124362766743 0.130907706916 -0.0101030599326 0.117897474207 -0.48696936667 -0.269581891596 -0.0179167054594 0.00448865443468 0.125556603074 -0.00055867806077 -0.133732482092 0.329540148377 -0.138719778508 -0.180304458365 -0.0785951148719 -0.00199153833091 -0.070927940309 0.25346917659
están_tomando 0.345259487629 0.0669446140528 -0.21719789505 -0.0542427487671 0.477623045444 -0.0693322177976 -0.351525306702 0.210783317685 -0.0325225964189 0.275953024626 -0.0410099439323 0.0911455899477 -0.208734329848 -0.246587686241 -0.208078600466 -0.189075164497 -0.188561959192 0.148510301486 0.0206603973638 0.102711066604 0.278491765261 -0.0746278241277 0.548877462745 -0.211810015142 0.0671179331839 -0.34025362879 -0.0101740211248 0.173970990814 -0.318293020129 -0.142983067781 0.0462276865728 0.387215301394 0.132646590471 -0.428667619824 0.155308043584 -0.00508935004473 -0.0527353063226 -0.0813276097178 0.0723495706916 0.17900390178 0.0831969510764 0.0610661031678 0.166454486549 0.192147791386 -0.105418313062 0.142371952534 0.108430601656 0.088990163058 0.0533287692815 -0.184064045548 -0.0471143946052 0.00459432997741 -0.0747443046421 0.137660374865 0.0520795602351 0.20181966573 0.00587614998221 0.339253351092 0.352659448981 0.194530818611 0.0054182074964 -0.0478249453008 0.105818860233 -0.182500213385 0.0379448411986 -0.140002913773 0.141557231545 0.0878686606884 0.0612180456519 0.261003047228 0.201307360083 0.00536090880632 0.261212311685 0.154575878754 0.0683803837746 0.127577578998 0.0954367443919 0.145164906979 0.217779107392 -0.162910767831 -0.0497400606982 0.133599560242 0.0661216322333 -0.0731685124338 0.262701979838 -0.056890424341 0.00674815289676 -0.00727948267013 -0.00506507046521 -0.149487284943 0.107425261289 0.149123193696 0.143790517002 0.243149623275 -0.355398312211 -0.0882240384817 0.133386606351 -0.561673566699 0.341988936067 0.13209059462 0.237543012947 -0.222947154194 -0.0991997420788 0.214771963656 0.0572866648436 -0.0792094594799 0.112817451358 -0.151396464556 -0.0278393142507 0.024727627635 -0.126268848777 0.507515534759 0.0286395493895 -0.123622976243 0.209274996072 -0.144938196987 -0.0896914657205 0.380263209343 -0.129010373726 0.165193777531 0.0161367282271 -0.0388458184898 -0.0883228294551 -0.297857433558 0.152010938153 -0.0785922333598 0.0841765999794 0.141245749779 -0.0923019647598 0.290020987391 0.00107218325138 0.149144243449 -0.0184937883168 0.449686676264 0.269173443317 -0.126091510057 -0.11771337688 0.063389569521 0.184092972428 -0.0137514695525 -0.240268673748 0.189769312739 -0.482195600867 0.230612963438 -0.169522872195 0.0346784733701 -0.0277943909168 -0.0977375600487 -0.0624054446816 0.134759102017 0.129288334399 -0.165172800422 -0.250980257988 0.0979726538062 -0.0177105708281 0.268190342933 0.127158083022 0.248900301754 0.257595188916 -0.0464398115873 0.0724437385798 0.0135246627033 0.0937867686152 0.157010950148 -0.0230674464256 0.174985719845 0.270228888839 0.122971847653 -0.20558552444 0.0415722113103 -0.11142174527 0.234530385584 -0.235061228275 0.357221037149 -0.437598697841 0.0357324850047 -0.173890318722 0.238038957119 0.157005794346 0.314724698663 -0.27066487819 0.157476950437 -0.0165992118418 -0.0387857833339 -0.25756996125 0.276284277439 -0.208196826279 -0.000922176986933 -0.0503796022385 0.0409853612073 0.205879323184 -0.375518605113 0.0538570135832 0.343547963537 -0.367853909731 -0.121652854607 -0.17512813583 0.243364229798 -0.254002727568 0.242116637528
están_sirviendo 0.211412720382 0.038135483861 -0.116905011237 -0.151024639606 0.491059064865 -0.0815368639305 -0.242298297584 0.29067517817 0.0626558158547 0.321267336607 -0.230659529567 0.0774369239807 -0.123369623034 -0.23982027173 -0.307630866766 -0.22606600076 -0.2380249165 0.0881990268826 -0.032491439255 0.1271339464 0.260819286108 0.030425593257 0.375244576484 -0.22032045573 0.112655576319 -0.314310654998 0.245714478195 0.148546526209 -0.238853543997 -0.0755563229322 0.000823955051601 0.294689640403 0.26060833782 -0.156288886443 -0.0109750125557 -0.0474064605078 -0.258815221488 -0.16627021879 0.226046562195 0.0177927911282 0.244684666395 0.0606105672196 0.0432583354414 0.157025776803 -0.165895879269 0.257514804602 0.0260835886002 0.0874554179609 0.0380867738277 -0.205140568316 -0.0750094279647 -0.0125789989252 -0.19091184251 -0.0204789787531 0.109359603375 0.285927608609 0.0670169387013 0.302615523338 0.0942827686667 0.130187347997 -0.0143617987633 -0.0535291433334 0.177500925958 -0.214318171144 -0.0641352767125 -0.0716856811196 -0.0586239397526 0.0506593063474 0.192198857665 0.183489702642 -0.0400307029486 -0.0439543426037 0.35504450649 0.177347505465 0.16378775239 0.112261696137 0.110053304583 0.0194751918316 0.353501945734 -0.224389024079 0.00485200301046 -0.0634853211232 0.0967754609883 -0.197298139334 0.340957440436 -0.0673108305782 -0.0283234752715 0.00720247253776 0.146547533572 -0.212770251557 -0.0532813183963 0.0386361591518 0.0647297669202 0.317559450865 -0.247501242906 -0.191396366805 0.0442776456475 -0.70497122407 0.283950038254 0.143806474283 0.106365453452 -0.148837476969 -0.0831390172243 0.265024930239 0.084312364459 -0.170458344277 0.136133819818 -0.126420233399 0.0473732314422 0.15636947751 0.113206252456 0.444290459156 0.0427520610392 -0.0898807309568 0.119799956679 -0.0953434035182 -0.091792780906 0.344080872834 -0.127311220393 0.285836756229 0.118626650423 -0.189290095121 -0.102062467486 -0.077094078064 0.0121653657407 -0.0825065076351 0.0975616574287 0.17697652895 -0.283136643469 0.229826271534 0.0288656353951 0.334256336093 -0.172228902578 0.336497962475 0.270487353206 0.019370354712 0.0129112973809 -0.0359156755731 0.0794317796826 0.0587741956115 -0.101879831403 0.132632860914 -0.50530333817 0.238352671266 -0.22846903652 0.121466852725 0.0699822306633 -0.163906509057 -0.0235051885247 0.282261725515 0.293720930815 -0.167208485305 -0.180986121297 -0.0846071913838 -0.0112688938389 -0.116856288165 0.206580273807 0.143092028797 0.148457314353 -0.0515819638968 0.000359307974577 -0.133770756423 0.0315563082695 0.130076944828 0.0250982288271 0.218997314572 0.0338273909874 0.0965281948447 -0.197192192078 -0.102781675756 -0.133350189775 0.2011678298 -0.247204110026 0.393251314759 -0.394053220749 0.0142327822978 -0.129172895104 0.285542786121 0.00386706367135 0.237169094384 -0.23300743103 -0.0299910344183 -0.0620978218503 -0.110788714141 -0.110182050616 0.248421568424 -0.434613510966 -0.152349237353 -0.0205271281302 0.0341452383436 0.215893171728 -0.304743051529 0.0608711019158 0.54864615202 -0.255827456713 -0.00238124281168 -0.127792563289 0.0346599668264 -0.0997582245618 0.184111461043
va_a_estar 0.307462364435 0.0293869550029 -0.187984871368 0.113937087357 0.45980061094 -0.0437312821547 -0.0829771148662 0.115978663166 0.0730416650573 0.389164298773 -0.0879632780949 0.00655541444818 -0.0822293187181 -0.0955589488149 -0.1173694022 -0.0879554847876 -0.112849779427 0.207736899455 -0.0194080645839 0.00455705821514 0.189180118342 -0.00707424680392 0.411475996176 -0.45938778917 -0.0631643508871 -0.0782797286908 0.326602404316 -0.0196258636812 -0.110011050478 -0.238451077292 -0.152655019114 0.239056497812 0.0332060555617 -0.355967799822 -0.0388588756323 0.137805327773 -0.00810020665328 0.0697347223759 -0.0996904902471 0.140812806785 -0.0393539344271 0.140227013578 0.28063027064 0.0129109788686 -0.0978768294056 0.188771446546 0.0917202114748 0.115020188193 0.0811659495036 -0.131455502162 -0.45624045531 0.0937304745118 -0.0579949940244 0.0208299507697 -0.136049220804 0.091491865615 0.0193963181227 0.0832479496797 0.186027268569 0.0378591840466 0.0937554029127 -0.129767555743 0.236080254118 -0.00293436894814 0.0453353946408 -0.132308435937 -0.112989395857 -0.0619973018765 0.201988992592 0.274469542628 0.0134331683318 -0.175518696507 0.0985189328591 -0.0709452250352 -0.0508460899194 -0.0597074230512 -0.130502988895 0.074253787597 0.0921639576554 -0.170638379951 -0.127433509876 -0.0332970817884 0.0407381951809 -0.173233713955 0.317513560255 -0.100708559155 0.190357374648 -0.205351655682 0.137187023958 -0.0878852705161 0.305951054829 0.116664782166 0.118525239949 0.119898866862 -0.482131143411 -0.0318697368105 0.146316868563 -0.388843923807 0.195558081071 0.289923071861 0.123202814721 -0.343267713984 -0.143982266386 0.220001665254 -0.0583460405469 -0.108109133939 0.0624671035136 -0.381122867266 -0.334294855595 0.118581925829 0.0693461475894 0.510985314846 -0.0660496503115 -0.111768933634 -0.0779868842413 -0.254822740952 0.110285103321 0.17118571947 -0.0510414838791 0.0448491722345 -0.000273627539476 -0.036514705047 0.052478445073 -0.0529724036654 -0.0273330509663 0.037277340889 0.169106932978 0.170688385144 0.0809451127425 0.0489124655724 0.0320561962823 0.0392720947663 -0.0750089685122 0.218893761436 0.162231686215 0.0606015001734 -0.0459882207215 0.0183688104153 0.141627773643 0.0534073958794 0.0905221054951 0.3145953541 -0.190581684311 0.462488542 -0.313100079695 -0.0776646782955 -0.156016717354 -0.333374982079 -0.0262743458152 0.146975502372 0.184119076778 -0.0459376896421 -0.127653986216 -0.0177120578786 0.0815758667886 0.25673055773 0.207294439276 -0.0135364780823 0.176045884689 -0.110152410964 -0.148007579148 -0.172290268044 0.111237985392 0.153470595678 -0.0443241645892 -0.0373770452279 -0.176075085998 0.177913020054 -0.094900354743 -0.0450140100244 -0.18066568238 0.152392356191 -0.0328036074837 0.0888365134597 -0.289130027095 0.112259196738 -0.1753123266 0.312608420849 0.0262812562287 0.325847518941 -0.0835480553408 0.348490645488 0.131798446178 0.0426601643364 -0.175248603026 0.214622737529 -0.338938198984 -0.154996804893 -0.0227820277214 -0.0910210212072 0.0439871400595 -0.0846815183759 -0.073731812338 0.44658306241 -0.289387236039 -0.271898368994 -0.0136223733425 0.244265069564 -0.0399568974972 0.158916655928
